svm_type c_svc
kernel_type rbf
gamma 0.0123457
nr_class 30
total_sv 1545
rho 0.234413 -0.0325129 0.0496763 0.125219 0.335413 0.125503 0.259534 -0.409662 0.113828 -0.298144 -0.169266 -0.315557 0.0378627 -0.595003 -0.273561 -0.662324 -0.33782 -0.342249 -0.192335 -0.795978 -0.579938 -0.836764 -0.595 -0.950475 -0.950475 -0.974928 -0.974928 -0.974928 -0.974928 -0.263871 -0.186913 -0.113492 0.106485 -0.112208 0.0230069 -0.587643 -0.123891 -0.497768 -0.388274 -0.509171 -0.200196 -0.727892 -0.477363 -0.776223 -0.536715 -0.543151 -0.408337 -0.868365 -0.716893 -0.895522 -0.72789 -0.968992 -0.968992 -0.984375 -1 -0.984375 -0.984375 0.0830896 0.158901 0.361203 0.157376 0.292421 -0.38224 0.145801 -0.268232 -0.146342 -0.285978 0.0711859 -0.573586 -0.243212 -0.643672 -0.308698 -0.313221 -0.160826 -0.783749 -0.557949 -0.826743 -0.573584 -0.947234 -0.947234 -0.973264 -1 -0.973264 -0.973264 0.076013 0.290578 0.0763009 0.212599 -0.450176 0.0601117 -0.342743 -0.217116 -0.359596 -0.0177534 -0.626171 -0.318904 -0.68932 -0.381101 -0.385373 -0.239718 -0.813488 -0.627059 -0.851064 -0.626168 -0.955056 -0.955056 -0.977273 -0.977273 -0.977273 -0.977273 0.21941 0.0002976 0.13883 -0.508779 -0.0115533 -0.408125 -0.28837 -0.424019 -0.0877699 -0.670281 -0.385571 -0.742076 -0.444244 -0.448254 -0.310081 -0.837701 -0.657416 -0.869539 -0.670279 -0.961285 -0.961285 -0.980453 -0.980453 -0.980453 -0.980453 -0.219132 -0.0831117 -0.655064 -0.235179 -0.57596 -0.475117 -0.588662 -0.30141 -0.775622 -0.565497 -0.816377 -0.604714 -0.607881 -0.495762 -0.892982 -0.766296 -0.915289 -0.775621 -0.975044 -0.975044 -0.987446 -0.987446 -0.987446 -1 0.131157 -0.508997 -0.0118473 -0.408368 -0.288646 -0.424264 -0.0880595 -0.670442 -0.385825 -0.74221 -0.444482 -0.448488 -0.310345 -0.837791 -0.657584 -0.87082 -0.67044 -0.961314 -0.961314 -0.980469 -0.980469 -0.980469 -0.980469 -0.604884 -0.146478 -0.517625 -0.410757 -0.531558 -0.222349 -0.740228 -0.497756 -0.786639 -0.549203 -0.550083 -0.430384 -0.874794 -0.729653 -0.900695 -0.740226 -0.970584 -0.970584 -1 -0.985183 -0.985183 -0.985183 0.500166 0.127034 0.258306 0.108076 0.440689 -0.245079 0.153277 -0.346744 0.0833801 0.0784069 0.235915 -0.57324 -0.22334 -0.649872 -0.245075 -0.885667 -0.885667 -0.941151 -0.941151 -0.941151 -0.941151 -0.39845 -0.277743 -0.414496 -0.0762936 -0.663868 -0.375691 -0.721739 -0.434924 -0.445451 -0.299601 -0.834222 -0.650806 -0.867925 -0.663866 -0.960396 -0.960396 -0.98 -0.98 -0.98 -0.98 0.135728 -0.0192201 0.332256 -0.360875 0.0267667 -0.453788 -0.0441192 -0.0491171 0.112246 -0.652741 -0.340705 -0.717659 -0.360871 -0.910286 -0.910286 -0.954114 -0.954114 -0.954114 -0.954114 -0.154544 0.20581 -0.473417 -0.109359 -0.555312 -0.178777 -0.183621 -0.0238441 -0.724303 -0.455375 -0.777641 -0.473412 -0.930991 -0.930991 -0.964894 -0.964894 -0.964894 -0.964894 0.349247 -0.344042 0.0459626 -0.438392 -0.0249202 -0.0299238 0.121874 -0.641568 -0.323609 -0.708207 -0.344039 -0.906932 -0.906932 -0.952358 -0.952358 -0.952358 -0.952358 -0.618922 -0.308231 -0.683057 -0.370938 -0.37525 -0.228534 -0.809446 -0.604529 -0.847768 -0.618919 -0.954004 -0.954004 -1 -1 -0.976735 -0.976735 0.383934 -0.111107 0.321882 0.317388 0.454705 -0.381799 0.0229952 -0.481478 3.90778e-006 -0.818181 -0.818181 -0.904761 -0.904761 -0.904761 -0.904761 -0.474788 -0.0708022 -0.0757831 0.0857365 -0.667838 -0.36415 -0.730394 -0.38393 -0.914763 -0.914763 -0.956454 -0.956454 -0.956454 -0.956454 0.418038 0.413898 0.538599 -0.252726 0.133761 -0.391304 0.0857205 -0.777778 -0.777778 -0.882353 -0.882353 -0.882353 -0.882353 -0.00500748 0.155597 -0.626667 -0.301113 -0.695563 -0.321878 -0.902407 -0.902407 -0.949983 -0.949983 -1 -0.949983 0.160481 -0.623615 -0.296554 -0.692968 -0.317383 -0.901472 -0.901472 -0.949495 -0.949495 -0.949495 -0.949495 -0.712765 -0.43627 -0.768041 -0.454702 -0.927731 -0.927731 -0.963208 -0.963208 -0.963208 -0.963208 0.401273 -0.12213 0.381802 -0.634626 -0.634626 -0.798949 -0.798949 -0.798949 -0.798949 -0.498951 -0.0229967 -0.825647 -0.825647 -0.908849 -0.908849 -0.908849 -0.908849 0.481481 -0.555556 -0.555556 -0.75 -0.75 -0.75 -0.75 -0.818182 -0.818182 -0.904762 -0.904762 -0.904762 -0.904762 0 -0.333333 -0.333333 -0.333333 -0.333333 -0.333333 -0.333333 -0.333333 -0.333333 0 0 0 0 0 0
label 6 17 0 8 13 4 3 18 12 11 15 14 2 19 5 7 1 20 10 24 25 22 23 21 9 16 -13 -15 -12 -28
nr_sv 79 132 80 91 104 163 109 136 33 101 43 59 43 87 20 45 17 40 41 54 10 22 8 20 2 2 1 1 1 1
SV
1.234263926051204 0.9676277621048287 1.049804687963759 1.12518222912838 1.335194919306498 1.125804226870693 1.259693870800385 0.590436074008861 1.113855642795528 0.7020292290608728 0.8309343725069873 0.6840147634254193 1.037931976387868 0.4046828403650419 0.7265004478114474 0.3381934560943334 0.6618442679939063 0.6576340025869947 0.8078750648822436 0.204191443954126 0.4198766065794555 0.1634624658812586 0.4046871056064286 0.04986529575315457 0.04986529575315457 0.025390625 0.025390625 0.025390625 0.025390625 1:255 2:253 3:255 4:232 5:79 6:107 7:230 8:254 9:224 10:255 11:253 12:255 13:86 14:24 16:160 17:249 18:121 19:251 20:255 21:160 22:94 23:255 24:160 25:101 26:255 27:106 28:251 29:255 30:75 31:190 32:255 33:255 34:159 35:249 36:141 37:252 38:255 39:115 40:201 41:254 42:253 43:151 44:249 45:128 46:251 47:255 48:139 49:182 50:255 51:241 52:118 53:239 54:89 55:252 56:255 57:166 58:69 59:255 60:182 61:151 62:189 63:85 64:251 65:255 66:151 68:29 70:58 71:37 72:152 73:254 74:253 75:235 76:144 77:86 78:57 80:112 81:255 
1.234367918350936 0.9678263014254266 1.049804687963724 1.125174289329782 1.335526376731453 1.125807318472229 1.259693870800385 0.5904448801593274 1.11360561634016 0.7019681383053996 0.8309343410300875 0.6840324449799126 1.038046912175923 0.4046925372839119 0.7262924204584849 0.3376803599086122 0.6618442679939063 0.6576271902407944 0.8078750648822436 0.204191443954126 0.4197658676923177 0.1634624533127804 0.4046954330003341 0.04986529575315457 0.04986529575315457 0.025390625 0.025390625 0.025390625 0.025390625 1:255 2:253 3:255 4:158 5:69 6:183 7:255 8:249 9:219 10:254 11:254 12:228 13:67 14:73 15:10 16:185 17:246 18:110 19:251 20:255 21:153 22:164 23:255 24:175 25:49 26:255 27:152 28:251 29:255 30:149 31:212 32:253 33:255 34:99 35:252 36:137 37:252 38:255 39:91 40:195 41:254 42:254 43:132 44:247 45:108 46:252 47:255 48:141 49:208 50:255 51:253 52:103 53:252 54:75 55:254 56:255 57:233 58:132 59:239 60:255 61:101 62:182 63:46 64:253 65:255 66:219 68:9 69:78 70:43 71:14 72:138 73:253 74:255 75:221 76:146 77:86 80:135 81:255 
1.234410444237941 0.967487797895916 1.049804687976335 1.125700794608595 1.335519445499939 1.125885518740088 1.259690707229742 0.5904584695497906 1.113855642350186 0.7020542599367361 0.8306949448396174 0.6840370684135654 1.0380487916045 0.4051880206866365 0.7262924204584849 0.3376803599086122 0.6623991056331824 0.6576271902407944 0.8074504097204432 0.2042029328573238 0.419888762794992 0.1634511627334632 0.405190903251258 0.04986529575315457 0.04986529575315457 0.025390625 0.025390625 0.025390625 0.025390625 1:255 2:255 3:255 4:255 5:167 6:233 7:255 8:255 9:255 10:255 11:253 12:251 13:115 15:21 16:205 17:248 18:94 19:252 20:255 21:176 22:106 23:213 24:97 25:146 26:254 27:91 28:252 29:255 30:100 31:207 32:255 33:255 34:194 35:252 36:127 37:251 38:255 39:148 40:198 41:251 42:253 43:120 44:227 45:126 46:252 47:255 48:192 49:187 50:255 51:254 52:108 53:220 54:149 55:252 56:255 57:174 58:97 59:223 60:231 61:133 62:130 63:111 64:251 65:255 66:86 68:6 69:32 70:78 71:62 72:199 73:253 74:255 75:146 76:191 77:185 78:44 80:138 81:255 
1.234318543231657 0.9673947165267329 1.049804687432333 1.125979831368617 1.335306996050748 1.125920588508656 1.259690707229742 0.5904578776756878 1.113855642445346 0.7020612334720311 0.8309946617677447 0.6840522354546901 1.037898743839574 0.4051774216025059 0.7262299401466419 0.337679948277914 0.6623991056331824 0.6576271903069657 0.8074095129061802 0.2042029328573238 0.4200003621098665 0.1634511627268235 0.4051799854036808 0.04984523328676005 0.04984523328676005 0.025390625 0.025390625 0.025390625 0.025390625 1:255 2:253 3:254 4:216 5:126 6:234 7:255 8:254 9:255 10:255 11:251 12:255 13:102 15:7 16:169 17:255 18:155 19:254 20:255 21:240 22:46 23:196 24:125 25:33 26:244 27:165 28:252 29:255 30:172 31:121 32:255 33:255 34:127 35:227 36:148 37:253 38:255 39:141 40:228 41:251 42:239 43:193 44:222 45:125 46:255 47:254 48:173 49:255 50:255 51:184 52:152 53:194 54:131 55:252 56:255 57:158 58:147 59:245 60:147 61:148 62:184 63:119 64:250 65:255 66:117 68:25 69:11 70:99 71:63 72:188 73:252 74:255 75:152 76:165 77:148 78:76 79:31 80:164 81:255 
1.234312413326521 0.9673893315973398 1.04997620757696 1.125976784009549 1.335432471941877 1.125987914005762 1.259690707229742 0.5904574963111625 1.113855642761494 0.7020292290608728 0.8308277587465606 0.6840633909479079 1.038057703536425 0.405166712857934 0.7263328415849299 0.3373853164795601 0.6623253932004524 0.6576271903265999 0.8078750648282599 0.2042029328573239 0.4197075601378681 0.1634493201180911 0.405169632454936 0.04984523328676005 0.04984523328676005 0.025390625 0.025390625 0.025390625 0.025390625 1:255 2:253 3:255 4:212 5:132 6:255 7:254 8:255 9:255 10:252 11:254 12:198 13:17 15:105 16:252 17:211 18:217 19:252 20:255 21:99 22:173 23:215 24:54 25:150 26:220 27:164 28:253 29:255 30:142 31:243 32:255 33:251 34:124 35:255 36:148 37:252 38:255 39:116 40:204 41:253 42:255 43:109 44:227 45:142 46:252 47:255 48:85 49:205 50:253 51:250 52:109 53:233 54:125 55:251 56:255 57:118 58:152 59:255 60:210 61:165 62:206 63:176 64:251 65:255 66:80 68:55 69:48 70:47 71:48 72:191 73:254 74:253 75:205 76:139 77:62 78:29 79:64 80:179 81:255 
1.234410364242033 0.9673952880291432 1.049805389261461 1.12592887158486 1.335260740230198 1.125663378888451 1.259690707229742 0.5904574963111624 1.113855642761494 0.7013321079420736 0.8306949448396174 0.6840555559928301 1.038042427962447 0.405166712857934 0.7262539375774904 0.337646715342432 0.6623253932004524 0.6576709717443605 0.8078750648282599 0.2042029328573239 0.4200830723452235 0.1634478385441118 0.405169632454936 0.0498046876277729 0.0498046876277729 0.025390625 0.025390625 0.025390625 0.025390625 1:255 2:254 3:255 4:249 5:156 6:255 7:255 8:255 9:255 10:254 11:254 12:231 13:50 14:15 15:87 16:247 17:207 18:131 19:251 20:255 21:132 22:125 23:240 24:64 25:137 26:226 27:63 28:253 29:255 30:115 31:245 32:255 33:249 34:86 35:255 36:93 37:252 38:255 39:128 40:205 41:254 42:255 43:119 44:245 45:120 46:251 47:255 48:163 49:192 50:253 51:255 52:107 53:226 54:142 55:255 56:255 57:241 58:131 59:255 60:221 61:111 62:187 63:29 64:252 65:255 66:175 68:65 69:53 70:71 71:76 72:136 73:252 74:255 75:196 76:172 77:153 78:53 79:41 80:194 81:255 
1.234370423258838 0.9674257373069418 1.049804688542075 1.125878378792522 1.335316041522791 1.125912687316387 1.259698102633188 0.5904483749976129 1.113855642445513 0.7013782257125399 0.8308909970951512 0.6846690687789596 1.03796751825856 0.405159174205362 0.7262924204584849 0.3373866711613284 0.6623253932004524 0.6577244480232491 0.807961459004538 0.2043278365606611 0.4202880005499679 0.1634413588266127 0.4051621026326467 0.04980468761073653 0.04980468761073653 0.025390625 0.025390625 0.025390625 0.025390625 1:255 2:254 3:255 4:246 5:150 6:213 7:255 8:253 9:255 10:255 11:254 12:255 13:75 15:20 16:196 17:251 18:158 19:251 20:255 21:164 22:69 23:206 24:134 25:49 26:255 27:80 28:250 29:255 30:126 31:182 32:255 33:246 34:85 35:250 36:147 37:253 38:255 39:122 40:230 41:252 42:255 43:107 44:233 45:135 46:252 47:255 48:140 49:221 50:252 51:252 52:115 53:239 54:64 55:253 56:255 57:201 58:141 59:255 60:255 61:116 62:205 63:84 64:254 65:255 66:232 67:9 68:124 69:208 70:23 71:33 72:120 73:252 74:255 75:195 76:31 78:9 80:63 81:235 
1.234370423258838 0.9673862675914215 1.049804688557685 1.125796096570161 1.335203257590152 1.125939600535683 1.259700140557728 0.590440768499845 1.113855642350186 0.7014323953462318 0.8308903827041008 0.6846690687789596 1.037922655432621 0.405159174205362 0.7271368925651472 0.3381778214699739 0.6623253932004524 0.6577244480232495 0.807963191834963 0.2043278365606611 0.4203411320635402 0.1634380458268445 0.4051621026326467 0.04980468761073653 0.04980468761073653 0.025390625 0.025390625 0.025390625 0.025390625 1:255 2:253 3:253 4:228 5:162 6:255 7:255 8:254 9:255 10:255 11:252 12:255 13:93 15:55 16:231 17:245 18:123 19:252 20:255 21:176 22:89 23:211 24:119 25:148 26:255 27:81 28:252 29:255 30:129 31:226 32:255 33:255 34:134 35:255 36:99 37:251 38:255 39:150 40:186 41:252 42:254 43:156 44:191 45:153 46:253 47:255 48:200 49:153 50:255 51:255 52:164 53:203 54:171 55:255 56:254 57:255 58:123 59:245 60:251 61:133 62:187 63:77 64:251 65:255 66:147 68:28 69:32 70:56 71:54 72:203 73:252 74:255 75:127 76:127 77:110 78:59 79:16 80:186 81:255 
1.234318543231657 0.9673890758679659 1.049805389261461 1.125740099880868 1.335186821817845 1.125778280840684 1.259700140557728 0.5904554101425772 1.11360561628531 0.7020198446280865 0.8305272946065483 0.6846473207388775 1.037932276854579 0.405159174205362 0.7271368925651472 0.3381778214699739 0.6622517024789937 0.6577244480232505 0.807963191834963 0.2043278365606611 0.4198370538651943 0.163434699187456 0.4051621026326467 0.04980468760221835 0.04980468760221835 0.025390625 0.025390625 0.025390625 0.025390625 1:254 2:253 3:255 4:131 5:94 6:215 7:255 8:254 9:255 10:251 11:255 12:114 13:13 14:66 15:10 16:251 17:173 18:162 19:253 20:255 21:112 22:213 23:255 24:130 25:162 26:239 27:145 28:254 29:255 30:156 31:254 32:253 33:255 34:128 35:255 36:149 37:252 38:255 39:99 40:211 41:254 42:255 43:102 44:221 45:153 46:252 47:255 48:83 49:201 50:255 51:243 52:106 53:226 54:128 55:251 56:255 57:162 58:122 59:250 60:230 61:210 62:154 63:140 64:251 65:255 66:120 68:38 69:49 70:44 71:50 72:208 73:254 74:255 75:202 76:187 77:84 78:44 79:1 80:161 81:255 
1.234310248986588 0.9673126614077285 1.049611091715693 1.125499806769634 1.335186252449634 1.125866103135076 1.259700140557728 0.5904554101425772 1.11360561628531 0.7020612334720311 0.8304901500445665 0.6846473207388775 1.037898743839543 0.4051561249672137 0.7271368925651472 0.3381778214699739 0.6622512122287511 0.6577282827431988 0.807963191834963 0.2041740644827383 0.4198370538651943 0.163434699187456 0.4051587191987833 0.04980468760221835 0.04980468760221835 0.02452173950986814 0.02452173950986814 0.02452173950986814 0.02452173950986814 1:255 2:253 3:255 4:144 5:77 6:174 7:255 8:254 9:255 10:255 11:254 12:255 13:32 14:16 16:147 17:255 18:175 19:252 20:255 21:162 22:94 23:250 24:141 25:101 26:255 27:97 28:252 29:255 30:88 31:206 32:255 33:255 34:128 35:254 36:90 37:251 38:255 39:132 40:201 41:252 42:252 43:139 44:240 45:120 46:253 47:255 48:185 49:127 50:255 51:254 52:154 53:210 54:154 55:255 56:255 57:250 58:70 59:224 60:255 61:129 62:175 63:81 64:252 65:255 66:188 68:14 69:53 70:56 71:75 72:196 73:253 74:255 75:215 76:145 77:138 78:43 80:196 81:255 
1.234309969470741 0.9674261617564202 1.049476857531668 1.124999982861024 1.33517032952956 1.12585607728955 1.259700140557728 0.5904554101425772 1.113605616285303 0.7019681383053996 0.8304245666761171 0.6846473207129252 1.037901590558517 0.4051561249672137 0.7271368925651472 0.3381778214373158 0.662395069630225 0.6576271902407944 0.8079631918349596 0.2043278365606611 0.4201511021911379 0.1634253872180203 0.4051587191987833 0.04980468750000933 0.04980468750000933 0.02452979813102663 0.02452979813102663 0.02452979813102663 0.02452979813102663 1:255 2:253 3:255 4:231 5:137 6:210 7:254 8:252 9:255 10:255 11:254 12:254 13:57 14:15 15:46 16:255 17:232 18:172 19:251 20:255 21:155 22:106 23:242 24:113 25:153 26:255 27:88 28:251 29:255 30:147 31:217 32:255 33:241 34:68 35:242 36:147 37:252 38:255 39:154 40:229 41:252 42:255 43:99 44:231 45:135 46:253 47:255 48:112 49:240 50:255 51:236 52:133 53:245 54:91 55:250 56:255 57:122 58:105 59:225 60:204 61:163 62:189 63:56 64:251 65:255 66:158 69:38 70:49 71:37 72:79 73:254 74:255 75:228 76:86 77:79 78:60 79:33 80:119 81:249 
1.234310043617466 0.9674261467241007 1.049804687976335 1.124999982861024 1.335170421819444 1.125507989038444 1.259690380289887 0.5904554101425772 1.114059496637872 0.7013705632121 0.8305272946065483 0.6846411860762592 1.037673990343581 0.4051317653812548 0.7271368925651472 0.3378748741873126 0.6623829854169582 0.6576271902407944 0.8079616380573407 0.204327836560661 0.4200830723219799 0.1634253872180203 0.4051333219806924 0.04980468760221835 0.04980468760221835 0.02451625178202077 0.02451625178202077 0.02451625178202077 0.02451625178202077 1:255 2:253 3:255 4:188 5:149 6:253 7:255 8:252 9:255 10:255 11:254 12:242 13:29 15:47 16:214 17:237 18:117 19:251 20:255 21:149 22:117 23:221 24:105 25:109 26:249 27:45 28:252 29:255 30:117 31:228 32:255 33:255 34:113 35:237 36:132 37:254 38:255 39:125 40:240 41:252 42:255 43:110 44:247 45:162 46:252 47:255 48:140 49:209 50:255 51:244 52:127 53:253 54:91 55:252 56:255 57:196 58:84 59:255 60:202 61:137 62:176 63:101 64:251 65:255 66:120 68:38 69:51 70:29 71:25 72:229 73:252 74:255 75:146 76:120 77:95 78:69 80:146 81:255 
1.234410338162412 0.9674257512622226 1.049804687976335 1.124999982861027 1.335135981825056 1.125227605200633 1.259690380289887 0.5904487208352378 1.11400395649428 0.7020794046023444 0.8304021041623362 0.6846411860762592 1.03761271301025 0.4050760904221931 0.7271368925651472 0.3377597008115177 0.6618444878826337 0.6576271902407944 0.8074745894957329 0.2040206860562616 0.4201486404248309 0.1634241399445668 0.4050710042989676 0.0498046875340728 0.0498046875340728 0.02464196438229666 0.02464196438229666 0.02464196438229666 0.02464196438229666 1:255 2:253 3:255 4:198 5:69 6:169 7:255 8:244 9:217 10:254 11:254 12:239 13:34 14:72 15:11 16:209 17:235 18:101 19:251 20:255 21:114 22:107 23:255 24:185 25:119 26:255 27:107 28:251 29:255 30:141 31:202 32:253 33:255 34:116 35:237 36:121 37:251 38:255 39:147 40:197 41:252 42:255 43:133 44:225 45:127 46:251 47:255 48:150 49:191 50:255 51:243 52:143 53:253 54:80 55:252 56:255 57:162 58:99 59:212 60:176 61:107 62:142 63:60 64:250 65:255 66:114 69:31 70:26 71:21 72:209 73:252 74:255 75:199 76:167 77:99 78:34 79:53 80:148 81:255 
1.234368192927233 0.9674257512622231 1.049804687976334 1.124999987158808 1.335055130017504 1.125869885960318 1.259690380289925 0.5904487208352378 1.113818863144213 0.7017412527461894 0.8308323474280052 0.6846411860762592 1.037898558755175 0.4050693804653729 0.7264204597284213 0.3376041251292385 0.6618442679939063 0.6576271902407944 0.8079594459813155 0.2039764843201842 0.4202434099806069 0.1634176582842155 0.4050818323016399 0.0498046875340728 0.0498046875340728 0.02462546144863093 0.02462546144863093 0.02462546144863093 0.02462546144863093 1:255 2:254 3:255 4:247 5:145 6:227 7:255 8:255 9:242 10:255 11:254 12:249 13:67 14:22 15:24 16:213 17:243 18:131 19:252 20:255 21:179 22:74 23:242 24:137 25:82 26:255 27:95 28:251 29:255 30:145 31:191 32:255 33:249 34:147 35:237 36:94 37:252 38:255 39:122 40:219 41:253 42:255 43:141 44:214 45:78 46:253 47:255 48:111 49:239 50:255 51:222 52:107 53:240 54:51 55:252 56:255 57:157 58:164 59:255 60:194 61:140 62:166 63:66 64:251 65:255 66:159 67:7 68:56 69:53 70:71 71:70 72:202 73:252 74:255 75:185 76:181 77:163 78:61 79:29 80:183 81:255 
1.234368192927233 0.9673936399102309 1.049804687976334 1.124999987590758 1.335090691256357 1.125960105021157 1.259690380289925 0.5902761004745654 1.113794448645053 0.7019350594685787 0.8306878077318043 0.6846411860762592 1.037911298322789 0.4050693367796378 0.7261725131534436 0.3381934560772972 0.6618442679939063 0.6576271902899233 0.8079594459813146 0.2039419011270462 0.4202434097080696 0.1633014199723664 0.4043197309166321 0.0498046875340728 0.0498046875340728 0.02463967549462404 0.02463967549462404 0.02463967549462404 0.02463967549462404 1:255 2:254 3:255 4:169 5:72 6:232 7:255 8:253 9:255 10:253 11:255 12:205 13:36 14:74 15:55 16:221 17:255 18:168 19:252 20:255 21:174 22:132 23:255 24:203 25:108 26:247 27:139 28:252 29:255 30:181 31:167 32:252 33:255 34:174 35:199 36:194 37:252 38:255 39:168 40:154 41:254 42:251 43:171 44:218 45:128 46:252 47:255 48:179 49:188 50:254 51:255 52:119 53:204 54:81 55:253 56:255 57:204 58:174 59:255 60:213 61:135 62:231 63:76 64:252 65:255 66:182 67:5 68:74 69:49 70:115 71:96 72:123 73:253 74:255 75:210 76:85 77:51 80:102 81:255 
1.234368131231224 0.9673952880291432 1.049804687976334 1.124999988022707 1.335448141406512 1.125920581743058 1.259690380289925 0.5902817913793488 1.113848677727961 0.7019980011640605 0.8306878077318043 0.6846246537482632 1.037966763775288 0.4042129541493953 0.7263158429394856 0.3382312989064488 0.6623818075247616 0.6576271903069657 0.8079594459813131 0.2036900104764583 0.4203460673158574 0.1633014199723664 0.4050789357531175 0.0498046875340728 0.0498046875340728 0.0246309276793974 0.0246309276793974 0.0246309276793974 0.0246309276793974 1:255 2:253 3:255 4:189 5:127 6:240 7:252 8:255 9:255 10:253 11:255 12:207 13:11 14:5 15:51 16:255 17:169 18:199 19:252 20:254 21:79 22:152 23:233 24:65 25:207 26:210 27:130 28:255 29:251 30:76 31:243 32:255 33:240 34:115 35:255 36:98 37:251 38:255 39:139 40:197 41:253 42:255 43:190 44:250 45:130 46:252 47:255 48:176 49:197 50:253 51:253 52:152 53:246 54:143 55:253 56:255 57:190 58:88 59:255 60:228 61:149 62:194 63:92 64:250 65:255 66:146 68:77 69:66 70:75 71:52 72:188 73:252 74:255 75:184 76:147 77:156 78:89 79:21 80:121 81:255 
1.234367918350936 0.9673932099709711 1.049804687976334 1.124999988022707 1.335905704635848 1.125909113669121 1.259690380289925 0.5904554101425772 1.113827653757319 0.7017048238835502 0.8307140803227138 0.6846246537482632 1.037966869942206 0.4050693368580823 0.7263158429394856 0.3373853164710419 0.6623352956888331 0.6576271903265999 0.8079594459813131 0.2036098660252368 0.420288000549972 0.1633014199723664 0.4043197645308581 0.0498046875340728 0.0498046875340728 0.0253906250340728 0.0253906250340728 0.0253906250340728 0.0253906250340728 1:255 2:254 3:254 4:253 5:109 6:191 7:254 8:255 9:161 10:255 11:252 12:255 13:98 14:15 15:25 16:159 17:254 18:66 19:252 20:255 21:137 22:106 23:244 24:190 25:88 26:238 27:97 28:254 29:250 30:168 31:255 32:255 33:192 34:151 35:219 36:107 37:255 38:240 39:137 40:255 41:252 42:218 43:131 44:248 45:141 46:253 47:253 48:87 49:207 50:255 51:249 52:104 53:252 54:151 55:251 56:255 57:181 58:94 59:233 60:179 61:151 62:186 63:117 64:251 65:255 66:113 68:11 69:4 70:75 71:32 72:204 73:253 74:255 75:152 76:164 77:141 78:107 80:165 81:255 
1.234358152366906 0.9679744392613814 1.049976207576959 1.124999991387368 1.335911234813225 1.125909426193895 1.259693937915942 0.5906119163317314 1.114221104070432 0.7018329061954063 0.8308326401209799 0.6845800872907808 1.038048791604479 0.4050760905584842 0.7263158429394856 0.3373853164710419 0.6623073847208896 0.6576271903265999 0.8079594459813055 0.2036098660252368 0.4197961214782364 0.1633014199723664 0.4051247222465799 0.04980468753407275 0.04980468753407275 0.0253906250340728 0.0253906250340728 0.0253906250340728 0.0253906250340728 1:255 2:254 3:254 4:255 5:145 6:212 7:255 8:255 9:242 10:255 11:253 12:255 13:108 14:5 15:22 16:156 17:255 18:122 19:254 20:255 21:242 22:40 23:216 24:206 25:17 26:243 27:118 28:251 29:255 30:154 31:128 32:255 33:255 34:114 35:223 36:115 37:252 38:255 39:131 40:212 41:252 42:244 43:137 44:234 45:130 46:255 47:232 48:136 49:255 50:255 51:168 52:153 53:186 54:162 55:254 56:251 57:95 58:185 59:237 60:167 61:205 62:185 63:142 64:250 65:255 66:137 68:29 69:60 70:79 71:80 72:208 73:254 74:255 75:213 76:144 77:91 78:58 79:13 80:160 81:255 
1.190523466862882 0.9331107038412372 1.012058268216996 1.08558750638196 1.288334989524057 1.08577501990699 1.214460482587717 0.5693470396711368 1.074151663243752 0.6767661807547197 0.8008164286709613 0.6598001610114497 1.000586655370412 0.3903164353790541 0.7005499826682354 0.3255221822921867 0.6380749465386422 0.6342899922747325 0.7784534089486379 0.1969389232375565 0.4050195336251563 0.1571024337760566 0.3903206380124137 0.04755125847113756 0.04755125847113756 0.02377562907603359 0.02377562907603359 0.02377562907603359 0.02377562907603359 1:255 2:253 3:255 4:229 5:135 6:235 7:255 8:253 9:252 10:255 11:253 12:251 13:67 14:23 15:11 16:218 17:242 18:81 19:251 20:255 21:154 22:85 23:250 24:79 25:119 26:255 27:94 28:253 29:254 30:129 31:234 32:255 33:247 34:141 35:221 36:117 37:255 38:244 39:114 40:255 41:253 42:229 43:166 44:221 45:132 46:254 47:253 48:69 49:210 50:255 51:243 52:148 53:253 54:89 55:253 56:255 57:207 58:95 59:245 60:255 61:185 62:208 63:116 64:252 65:255 66:168 68:51 69:79 70:72 71:97 72:228 73:252 74:255 75:162 76:177 77:124 78:66 79:38 80:185 81:255 
1.234358094831519 0.9679108406647851 1.049805389261461 1.124999999136101 1.335519445499939 1.125877884569395 1.259698102633188 0.590277622586765 1.114130719943614 0.7017044379518841 0.8310202378530323 0.6840281371311283 1.037911298322789 0.4050693804653729 0.7262539375774904 0.3373853164795601 0.6623073847208896 0.6576509719232647 0.8078750648282599 0.2034493662940804 0.4197961214782364 0.1633012916901002 0.4050818338573366 0.04980468750001105 0.04980468750001105 0.0253906250340728 0.0253906250340728 0.0253906250340728 0.0253906250340728 1:253 2:255 3:202 4:219 5:205 6:36 7:136 8:251 9:255 10:252 11:255 12:160 13:224 14:163 15:191 16:124 17:198 18:255 19:252 20:255 21:154 22:136 23:101 24:181 25:112 26:224 27:255 28:255 29:255 30:248 31:173 32:138 33:103 34:38 35:183 36:255 37:255 38:254 39:255 40:210 41:144 42:209 43:223 44:223 45:245 46:252 47:255 48:165 49:77 50:132 51:61 52:135 53:255 54:83 55:252 56:255 57:171 58:204 59:255 60:255 61:141 62:197 63:167 64:253 65:255 66:211 67:51 68:232 69:245 70:151 71:129 72:120 73:252 74:255 75:163 76:66 77:103 78:45 79:37 80:117 81:222 
1.234358037199695 0.9678255201467352 1.049804688549167 1.124999999136101 1.335543885000303 1.125826068368385 1.259698102633188 0.5902749148528085 1.113484463999594 0.7016845794578123 0.8302743858348057 0.684051788161301 1.037607951992465 0.4050799479708052 0.7262466799716637 0.3376464171040981 0.6623073847208897 0.6576509719232647 0.8079481986359975 0.203731034920983 0.4198825735447894 0.1633014199723664 0.4050818325741802 0.04980468750000988 0.04980468750000988 0.02539062500001049 0.02539062500001049 0.02539062500001049 0.02539062500001049 1:252 2:255 3:196 4:48 5:141 6:255 7:253 8:255 9:255 10:253 11:185 12:46 13:96 14:49 15:87 16:255 17:253 18:255 19:255 20:48 21:161 22:255 23:233 24:92 25:147 26:255 27:251 28:242 29:105 30:255 31:251 32:255 33:255 34:72 35:206 36:254 37:220 38:114 39:253 40:253 41:249 42:254 43:128 44:159 45:255 46:188 47:181 48:255 49:252 50:250 51:251 52:143 53:201 54:255 55:154 56:189 57:255 58:253 59:255 60:255 61:157 62:178 63:255 64:195 65:120 66:255 67:253 68:188 69:169 70:89 71:198 72:255 73:235 74:185 75:255 76:255 77:180 78:5 79:24 80:249 81:255 
1.234410444236473 0.9674257630386315 1.049476857530418 1.125870233784492 1.335156216278085 1.125869885959013 1.259684300551866 0.5906698796518115 1.113605616283978 0.7020123236493426 0.8307975620638871 0.6845800872899623 1.037912027105644 0.4050800176642495 0.7271018434174039 0.3373855731714806 0.6623742080375329 0.6578325072726562 0.8079594459803537 0.2041730696351461 0.4202880005494691 0.1634478385439172 0.4050818338568551 0.04980468749995171 0.04980468749995171 0.02539062499997902 0.02539062499997902 0.02539062499997902 0.02539062499997902 1:255 2:253 3:255 4:197 5:96 6:186 7:255 8:255 9:206 10:255 11:253 12:255 13:74 16:135 17:255 18:73 19:254 20:255 21:235 22:86 23:232 24:192 25:14 26:225 27:166 28:252 29:255 30:176 31:112 32:255 33:255 34:138 35:203 36:165 37:252 38:255 39:157 40:168 41:253 42:255 43:156 44:236 45:127 46:253 47:255 48:105 49:217 50:251 51:207 52:129 53:226 54:136 55:252 56:255 57:128 58:224 59:255 60:120 61:168 62:153 63:171 64:251 65:255 66:109 67:40 68:99 69:44 70:84 71:42 72:187 73:250 74:255 75:117 76:43 77:4 80:89 81:252 
1.234358037199695 0.9679048809986113 1.049804688542075 1.124999999136101 1.335999696213446 1.125809276497116 1.259700140557728 0.5902761004745661 1.113458441714207 0.701764292711188 0.8308210121243846 0.6846014819974585 1.03761271301025 0.4050800176647363 0.7262924204584849 0.3373418301379457 0.6624019019131179 0.6576709717443604 0.8078750648282599 0.2037655757927278 0.419888762794992 0.1633012915878818 0.4051696324549359 0.04980468750000988 0.04980468750000988 0.02539062500000699 0.02539062500000699 0.02539062500000699 0.02539062500000699 1:255 2:254 3:255 4:237 5:125 6:245 7:255 8:251 9:255 10:255 11:254 12:250 13:61 15:62 16:232 17:235 18:107 19:252 20:255 21:182 22:52 23:214 24:143 25:85 26:255 27:107 28:252 29:255 30:140 31:205 32:255 33:246 34:69 35:246 36:120 37:254 38:255 39:151 40:255 41:252 42:247 43:98 44:248 45:112 46:252 47:255 48:120 49:219 50:255 51:254 52:113 53:253 54:143 55:254 56:255 57:229 58:123 59:255 60:255 61:137 62:192 63:110 64:253 65:255 66:217 68:33 69:67 70:42 71:41 72:166 73:254 74:255 75:227 76:177 77:118 78:56 79:48 80:181 81:255 
1.23435796937052 0.9679048809986112 1.049804688542075 1.124999999999879 1.335819340448043 1.125807318472229 1.259700140557728 0.5906792790002031 1.113827653757319 0.701764292711188 0.8306909323943199 0.6845247262754637 1.037607763843238 0.4051230847238922 0.7262923390965197 0.3373416673120931 0.662388160824393 0.6576709717443605 0.8079685574470122 0.2039797899918138 0.4198987215665833 0.1634253872180201 0.4051621026326467 0.04980468750000933 0.04980468750000933 0.02539062500000699 0.02539062500000699 0.02539062500000699 0.02539062500000699 1:255 2:253 3:254 4:218 5:109 6:218 7:255 8:253 9:255 10:255 11:252 12:255 13:70 15:2 16:212 17:229 18:88 19:251 20:255 21:164 22:64 23:213 24:96 25:64 26:255 27:85 28:252 29:255 30:136 31:217 32:255 33:240 34:100 35:241 36:118 37:255 38:247 39:117 40:255 41:251 42:243 43:204 44:203 45:130 46:254 47:250 48:162 49:253 50:255 51:230 52:132 53:244 54:85 55:253 56:255 57:209 58:137 59:235 60:235 61:134 62:182 63:50 64:252 65:255 66:182 68:16 69:57 70:45 71:51 72:196 73:253 74:255 75:205 76:94 77:82 78:60 79:42 80:140 81:255 
1.23435796937052 0.9674243021893266 1.049805389261461 1.125 1.335602554255327 1.125804226870693 1.259700140557728 0.5906126003193911 1.113827653757319 0.7021500103135892 0.8303994100977625 0.6846246537482632 1.037818531157086 0.4050923538762986 0.7261637318739089 0.337379609338056 0.6623073847208896 0.6574670504511243 0.8079594459813055 0.2039944734027911 0.4199404327019621 0.1629313732819479 0.4043197645308581 0.04980468750000933 0.04980468750000933 0.02539062500000466 0.02539062500000466 0.02539062500000466 0.02539062500000466 1:255 2:254 3:254 4:249 5:157 6:197 7:255 8:254 9:255 10:255 11:252 12:255 13:107 16:226 17:251 18:178 19:251 20:255 21:164 22:68 23:204 24:104 25:87 26:255 27:111 28:251 29:255 30:79 31:175 32:255 33:255 34:118 35:253 36:137 37:252 38:255 39:132 40:209 41:252 42:254 43:161 44:250 45:125 46:251 47:255 48:138 49:197 50:255 51:247 52:120 53:239 54:103 55:251 56:255 57:145 58:110 59:241 60:219 61:164 62:199 63:80 64:252 65:255 66:194 68:22 69:62 70:54 71:20 72:118 73:254 74:253 75:245 76:135 77:69 78:19 79:6 80:106 81:255 
1.189796806243223 0.9324899265932778 1.011387594894155 1.085188587616255 1.287303612781135 1.085136808017564 1.213645275233862 0.568555993649171 1.073433530506689 0.6766920872226581 0.8005872164325558 0.6593623321052958 1.000415786841975 0.3900756474218823 0.7001949423097986 0.3256182188425743 0.6381345009606845 0.6340028296754051 0.7781245255880958 0.196800473326798 0.404819265605116 0.1571027140472791 0.3900793654601732 0.0475269342302706 0.0475269342302706 0.02376346716624445 0.02376346716624445 0.02376346716624445 0.02376346716624445 1:255 2:253 3:255 4:160 5:91 6:212 7:255 8:240 9:235 10:255 11:254 12:253 13:34 15:2 16:218 17:227 18:73 19:252 20:255 21:178 22:109 23:215 24:183 25:95 26:243 27:117 28:253 29:255 30:197 31:182 32:255 33:255 34:137 35:148 36:202 37:253 38:255 39:191 40:122 41:251 42:254 43:176 44:193 45:154 46:252 47:255 48:171 49:152 50:255 51:244 52:118 53:213 54:75 55:251 56:255 57:136 58:102 59:238 60:178 61:195 62:127 63:159 64:253 65:255 66:50 68:12 69:5 70:73 71:103 72:255 73:255 74:249 75:157 76:188 77:108 78:68 79:57 80:211 81:255 
1.221632219226542 0.9574564597280699 1.038828285471116 1.113728130138444 1.321649028750308 1.113645758576979 1.246140490122558 0.5843699220194905 1.102414003646625 0.6947446443168786 0.8219623563512906 0.677510805432499 1.027020000135725 0.4000599232322746 0.7187011529867128 0.3341805075019836 0.6555574717000627 0.6510895829439777 0.7990861246104583 0.2016704019242896 0.4155522698587937 0.1617624229209921 0.4000631123404195 0.04846447548107241 0.04846447548107241 0.02427373264201138 0.02427373264201138 0.02427373264201138 0.02427373264201138 1:255 2:255 3:254 4:255 5:131 6:210 7:255 8:255 9:243 10:255 11:252 12:255 13:167 16:172 17:255 18:106 19:254 20:254 21:226 22:64 23:214 24:120 25:96 26:255 27:85 28:252 29:255 30:133 31:177 32:255 33:255 34:122 35:234 36:103 37:255 38:234 39:146 40:255 41:252 42:228 43:188 44:206 45:167 46:255 47:218 48:117 49:255 50:255 51:206 52:155 53:244 54:170 55:253 56:254 57:110 58:185 59:250 60:202 61:155 62:189 63:107 64:250 65:255 66:144 68:30 69:53 70:32 71:24 72:178 73:254 74:255 75:227 76:128 77:159 78:31 80:162 81:255 
1.234385883746657 0.9673626240505818 1.049804669819115 1.125878359149589 1.335135958525553 1.125555810777111 1.259711038060201 0.5898017461099829 1.113855623380082 0.7017642807175675 0.8309394180999853 0.6846473087971613 1.038046894068635 0.4050693297233949 0.726313742867018 0.3382490863384099 0.6620027963285351 0.6576271788128095 0.8077344438632402 0.2039944699955125 0.4200830650265249 0.1633012888493161 0.4050709973686883 0.04980468675891692 0.04980468675891692 0.02462550250853735 0.02462550250853735 0.02462550250853735 0.02462550250853735 1:255 2:253 3:255 4:210 5:119 6:236 7:255 8:255 9:255 10:255 11:254 12:252 13:48 14:12 15:21 16:228 17:242 18:148 19:251 20:255 21:150 22:82 23:240 24:96 25:88 26:254 27:67 28:251 29:255 30:138 31:203 32:255 33:255 34:86 35:249 36:123 37:252 38:255 39:178 40:229 41:253 42:252 43:150 44:208 45:180 46:253 47:255 48:206 49:141 50:255 51:255 52:143 53:179 54:185 55:255 56:255 57:252 58:79 59:255 60:255 61:109 62:174 63:116 64:252 65:255 66:168 68:61 69:60 70:7 71:61 72:206 73:253 74:255 75:180 76:170 77:119 79:25 80:232 81:255 
1.234413865379039 0.967487797895916 1.049476857531585 1.125 1.33546369262227 1.125747175582584 1.259700140557728 0.5904227173282028 1.113804977980024 0.7021500092233324 0.8304087044990856 0.6845781210394959 1.037812819863144 0.4051301212552341 0.726176340938349 0.3375845964482943 0.662001027792283 0.6576920111765596 0.8073619146991294 0.2039944734027911 0.4199301993992059 0.1629124836818904 0.4043197309166322 0.0492618552565765 0.0492618552565765 0.025390625 0.025390625 0.025390625 0.025390625 1:255 2:253 3:255 4:181 5:87 6:147 7:255 8:250 9:255 10:251 11:254 12:145 13:35 14:90 15:5 16:242 17:175 18:146 19:253 20:255 21:107 22:209 23:255 24:96 25:128 26:242 27:102 28:254 29:255 30:172 31:255 32:252 33:245 34:94 35:254 36:129 37:252 38:255 39:136 40:215 41:253 42:254 43:85 44:245 45:156 46:251 47:255 48:84 49:165 50:255 51:224 52:101 53:236 54:115 55:252 56:255 57:192 58:69 59:216 60:131 61:198 62:141 63:171 64:251 65:255 66:102 67:17 68:10 69:9 70:28 71:86 72:249 73:254 74:255 75:215 76:240 77:203 78:174 79:101 80:237 81:255 
1.234410731715353 0.967487797895916 1.049544165764304 1.125 1.335498509941169 1.125778280840684 1.259700140557728 0.5904398288228063 1.113818863144213 0.7020008590381177 0.8306877482059802 0.6845440990705476 1.037665671077131 0.4051301212552342 0.7261465210519842 0.3375844337270746 0.662001027792283 0.6576920111765596 0.8073266741853166 0.2040920192833439 0.4201512744488127 0.1629208221012361 0.4042162443524308 0.04925100577029823 0.04925100577029823 0.025390625 0.025390625 0.025390625 0.025390625 1:255 2:254 3:255 4:204 5:153 6:254 7:255 8:254 9:255 10:255 11:254 12:252 13:29 14:16 15:45 16:233 17:242 18:144 19:253 20:255 21:210 22:50 23:239 24:130 25:105 26:255 27:75 28:251 29:255 30:144 31:170 32:255 33:255 34:142 35:250 36:122 37:251 38:255 39:141 40:207 41:254 42:252 43:102 44:215 45:112 46:252 47:255 48:166 49:207 50:253 51:252 52:146 53:248 54:156 55:252 56:255 57:177 58:106 59:255 60:218 61:105 62:196 63:89 64:250 65:255 66:107 68:83 69:79 70:29 71:63 72:186 73:253 74:255 75:173 76:143 77:8 78:24 79:13 80:186 81:255 
1.234410444237942 0.967487797895916 1.049804687432333 1.125 1.33551848667271 1.125778280840684 1.259700140557728 0.590440768499845 1.113804977971576 0.7013321079420736 0.8304641600175143 0.6839977428220714 1.037652953940686 0.4051301212552342 0.7263137555362926 0.3374654143026118 0.6620028078773192 0.6576709717443605 0.8079481986359975 0.2041392908004828 0.4201486404248309 0.1629853937840005 0.4050710045034044 0.04925092277800719 0.04925092277800719 0.02463092767939745 0.02463092767939745 0.02463092767939745 0.02463092767939745 1:255 2:254 3:255 4:198 5:135 6:210 7:255 8:254 9:255 10:254 11:254 12:243 13:32 14:24 15:9 16:213 17:244 18:127 19:251 20:255 21:104 22:84 23:251 24:90 25:86 26:246 27:97 28:253 29:255 30:107 31:229 32:255 33:242 34:105 35:255 36:144 37:253 38:255 39:103 40:220 41:254 42:255 43:121 44:229 45:137 46:252 47:255 48:130 49:202 50:253 51:253 52:75 53:226 54:146 55:252 56:255 57:182 58:168 59:255 60:182 61:144 62:200 63:151 64:250 65:255 66:104 68:54 69:38 70:42 71:43 72:229 73:254 74:255 75:201 76:176 77:152 78:76 79:7 80:160 81:255 
1.234410444237941 0.9674562937020751 1.049804687432334 1.125 1.335142034332398 1.125663378339262 1.259690707229742 0.5904276730710639 1.113846540695677 0.7017258878389349 0.8304673281499028 0.6846015606978709 1.03791202710688 0.4051298907311195 0.7265004478114473 0.3374651827756425 0.6618442679939063 0.6578325072734386 0.8079594459813055 0.2041740644827385 0.4201486404248309 0.1633012916901001 0.4050789358894087 0.04912093668826856 0.04912093668826856 0.02462550293806948 0.02462550293806948 0.02462550293806948 0.02462550293806948 1:255 2:253 3:255 4:220 5:132 6:221 7:255 8:255 9:255 10:254 11:254 12:244 13:54 15:3 16:207 17:246 18:143 19:251 20:255 21:122 22:72 23:215 24:82 25:104 26:254 27:36 28:252 29:255 30:141 31:232 32:255 33:255 34:117 35:250 36:141 37:252 38:255 39:192 40:204 41:252 42:253 43:156 44:165 45:196 46:253 47:255 48:211 49:121 50:253 51:255 52:178 53:180 54:148 55:253 56:255 57:222 58:28 59:253 60:246 61:133 62:136 63:74 64:251 65:255 66:120 68:74 69:70 70:58 71:43 72:203 73:254 74:254 75:198 76:122 77:95 78:10 79:17 80:184 81:255 
1.23441044423794 0.9673855753676319 1.049804687976335 1.125 1.335306484470276 1.125666704902964 1.259690707229742 0.590426666226348 1.113855642795528 0.7019222514111063 0.8304901500445665 0.6846014819974591 1.038057609836842 0.4051298907311195 0.7265004478114845 0.337379609338056 0.6623818075247616 0.6577244480232505 0.8078750648282599 0.2041740644827385 0.4200948045681242 0.1633012916560274 0.4050710042989676 0.04897189531088703 0.04897189531088703 0.02462546144863098 0.02462546144863098 0.02462546144863098 0.02462546144863098 1:255 2:252 3:255 4:200 5:76 6:170 7:255 8:251 9:208 10:255 11:253 12:255 13:59 14:21 15:1 16:169 17:253 18:94 19:251 20:255 21:162 22:102 23:255 24:168 25:60 26:255 27:92 28:252 29:255 30:150 31:226 32:255 33:238 34:96 35:248 36:119 37:255 38:249 39:138 40:253 41:254 42:240 43:190 44:195 45:119 46:255 47:249 48:83 49:251 50:255 51:205 52:160 53:240 54:95 55:252 56:255 57:163 58:155 59:254 60:180 61:136 62:208 63:70 64:250 65:255 66:153 68:53 69:46 70:48 71:48 72:198 73:253 74:255 75:220 76:144 77:82 78:33 80:144 81:255 
1.23441044423794 0.9673632878058789 1.049334160938696 1.125 1.335543885000303 1.125677309233931 1.259690707229742 0.5904487208352378 1.113855642795528 0.7020790789506393 0.8306877482059802 0.6840281371311283 1.038056311334447 0.4051297207564721 0.7262923390965197 0.337379609338056 0.6620028078271553 0.6576271903265999 0.8078750648282599 0.2040206860562616 0.4200830723658641 0.1634253872180202 0.4050818325741802 0.04897172305610481 0.04897172305610481 0.0245807412375143 0.0245807412375143 0.0245807412375143 0.0245807412375143 1:255 2:253 3:255 4:210 5:75 6:187 7:255 8:238 9:224 10:253 11:254 12:222 13:49 14:54 16:241 17:178 18:126 19:251 20:255 21:102 22:166 23:255 24:82 25:188 26:205 27:137 28:255 29:223 30:139 31:255 32:254 33:224 34:127 35:248 36:148 37:254 38:241 39:97 40:239 41:255 42:245 43:96 44:255 45:107 46:252 47:255 48:182 49:195 50:253 51:255 52:125 53:240 54:74 55:253 56:255 57:210 58:86 59:255 60:208 61:121 62:163 63:59 64:250 65:255 66:137 68:68 69:53 70:68 71:70 72:212 73:252 74:255 75:173 76:171 77:113 78:24 80:145 81:255 
1.234410364242033 0.967362640960698 1.049173983500358 1.125 1.335526798593349 1.125635841713559 1.259690707229742 0.5904487208352378 1.113855993010528 0.7020612334720264 0.8307204655828016 0.6846230963671214 1.037911298595331 0.4051230847238923 0.7261637318739089 0.337379609338056 0.6620028076908642 0.6576271902407944 0.8079481986359975 0.2039764843201842 0.4200830723452235 0.1634176582842156 0.4050818338573419 0.04897172305610481 0.04897172305610481 0.02451625178202077 0.02451625178202077 0.02451625178202077 0.02451625178202077 1:255 2:253 3:255 4:144 5:103 6:255 7:255 8:255 9:255 10:252 11:255 12:193 13:1 15:94 16:250 17:240 18:219 19:250 20:255 21:113 22:116 23:230 24:103 25:167 26:249 27:120 28:251 29:255 30:146 31:185 32:255 33:255 34:156 35:236 36:134 37:252 38:255 39:165 40:199 41:251 42:252 43:159 44:243 45:141 46:251 47:255 48:131 49:207 50:255 51:253 52:141 53:251 54:122 55:253 56:255 57:197 58:122 59:204 60:216 61:102 62:135 63:82 64:251 65:255 66:155 67:5 68:5 69:5 70:1 71:50 72:210 73:254 74:255 75:221 76:223 77:198 78:148 79:131 80:184 81:255 
1.234375714947977 0.9674877978947537 1.049476857530333 1.125052370479696 1.335518670064047 1.125826076940675 1.259656089670666 0.5902804849898864 1.113846540694047 0.7020612334711942 0.8307204655818115 0.6840517881604861 1.037932276853344 0.4050800043876507 0.7264818149454916 0.3376434541472034 0.6624017465924581 0.6577244480224663 0.8079592799957771 0.2041392908002403 0.4202880005494695 0.1634380458266507 0.4050818323011576 0.0498046874999517 0.0498046874999517 0.02539062499998018 0.02539062499998018 0.02539062499998018 0.02539062499998018 1:255 2:253 3:255 4:197 5:96 6:186 7:255 8:255 9:206 10:255 11:253 12:255 13:74 16:151 17:255 18:72 19:254 20:255 21:235 22:86 23:232 24:192 25:19 26:225 27:166 28:252 29:255 30:176 31:112 32:255 33:255 34:137 35:203 36:165 37:252 38:255 39:157 40:168 41:253 42:255 43:156 44:236 45:127 46:253 47:255 48:105 49:217 50:251 51:207 52:129 53:226 54:136 55:252 56:255 57:128 58:223 59:255 60:120 61:168 62:153 63:171 64:251 65:255 66:108 67:48 68:100 69:44 70:84 71:42 72:187 73:250 74:255 75:120 80:89 81:252 
1.234410351200004 0.9673126805929526 1.049172568452409 1.125 1.335194919306498 1.125586852717576 1.259459762722384 0.5898548601591052 1.113855642445513 0.7017431695670132 0.8304224963262493 0.6846211857691384 1.037911298595331 0.4051230847238923 0.7265004478114845 0.3373418301379457 0.6623253932004524 0.6579112866685166 0.8079592800105933 0.2035605762167116 0.4202880005499721 0.1633014199723664 0.40512472224658 0.04897163692726281 0.04897163692726281 0.02451616565462972 0.02451616565462972 0.02451616565462972 0.02451616565462972 1:255 2:255 3:250 4:199 5:100 6:255 7:255 8:254 9:255 10:252 11:255 12:174 13:28 14:29 15:72 16:247 17:190 18:182 19:250 20:255 21:129 22:170 23:255 24:72 25:115 26:245 27:123 28:251 29:255 30:118 31:198 32:255 33:255 34:78 35:243 36:159 37:252 38:255 39:95 40:207 41:254 42:253 43:86 44:220 45:125 46:253 47:255 48:107 49:235 50:255 51:252 52:152 53:234 54:120 55:251 56:255 57:148 58:101 59:255 60:215 61:162 62:148 63:92 64:250 65:255 66:149 68:34 69:41 70:10 71:45 72:217 73:252 74:255 75:190 76:83 77:65 78:48 79:24 80:186 81:255 
1.234321928784663 0.9673126614077285 1.049172568452409 1.125 1.335498509941169 1.125 1.259460976773885 0.5902572201672068 1.11400395649428 0.7017642921660235 0.8304901500445665 0.6846015566282235 1.037967193842945 0.4050923538762986 0.7265004478114845 0.3373418301379457 0.6623955357666156 0.6574402993488024 0.8079685574470122 0.2034570117830299 0.4202880005499692 0.163434699187456 0.4050940048871123 0.04986529575315463 0.04986529575315463 0.02451616565462972 0.02451616565462972 0.02451616565462972 0.02451616565462972 1:255 2:254 3:254 4:251 5:125 6:232 7:255 8:255 9:255 10:255 11:252 12:255 13:117 15:9 16:165 17:239 18:130 19:252 20:255 21:157 22:119 23:210 24:66 25:92 26:214 27:88 28:254 29:248 30:145 31:253 32:255 33:192 34:148 35:228 36:113 37:255 38:242 39:129 40:255 41:252 42:227 43:121 44:249 45:130 46:252 47:255 48:134 49:232 50:255 51:255 52:123 53:252 54:112 55:250 56:255 57:134 58:114 59:255 60:215 61:173 62:170 63:127 64:251 65:255 66:91 68:43 69:48 70:46 71:70 72:225 73:253 74:255 75:168 76:172 77:158 78:44 79:45 80:197 81:255 
1.234311156857592 0.9673126614077285 1.049976207576959 1.125 1.335804978505981 1.125 1.259461791172835 0.5902749148528085 1.113965478118479 0.7021500092233324 0.8310202378530323 0.6840324449799126 1.03796751825856 0.405080017664731 0.7268384663781087 0.3373416673120931 0.6620028076908642 0.6576509719232647 0.8074744321390101 0.204336377342481 0.4202880005499679 0.1634624533127804 0.4051324028489268 0.04984523328676005 0.04984523328676005 0.02452169644544711 0.02452169644544711 0.02452169644544711 0.02452169644544711 1:255 2:253 3:255 4:181 5:70 6:179 7:255 8:253 9:215 10:255 11:253 12:254 13:66 14:68 15:43 16:191 17:255 18:67 19:254 20:255 21:237 22:72 23:255 24:247 25:22 26:177 27:169 28:252 29:255 30:182 31:99 32:253 33:255 34:137 35:187 36:187 37:252 38:255 39:166 40:157 41:252 42:255 43:190 44:234 45:136 46:252 47:255 48:98 49:210 50:255 51:223 52:176 53:230 54:143 55:251 56:255 57:113 58:130 59:208 60:139 61:229 62:133 63:191 64:251 65:255 66:94 69:11 70:81 71:31 72:227 73:252 74:255 75:148 76:154 77:142 78:84 79:53 80:187 81:255 
1.234302828992215 0.9672954073967808 1.04997620757696 1.125 1.335804978505981 1.125 1.259547567565635 0.5902797487022671 1.113965478118479 0.7019980011640605 0.8307232703514798 0.6840372770511212 1.03796751825856 0.4050692945409676 0.7262299401173543 0.3373416673120931 0.6623302825977306 0.657444889911821 0.807574503471734 0.204327836560661 0.420288000549967 0.1634511627268235 0.4051324028489268 0.0498046876022184 0.0498046876022184 0.02451616565462977 0.02451616565462977 0.02451616565462977 0.02451616565462977 1:255 2:254 3:254 4:248 5:164 6:232 7:255 8:255 9:241 10:255 11:252 12:255 13:106 15:9 16:203 17:250 18:85 19:252 20:255 21:193 22:103 23:207 24:102 25:95 26:254 27:66 28:251 29:255 30:109 31:189 32:255 33:255 34:147 35:251 36:129 37:252 38:255 39:86 40:201 41:252 42:255 43:160 44:248 45:134 46:251 47:255 48:142 49:193 50:252 51:232 52:97 53:244 54:88 55:252 56:255 57:177 58:117 59:255 60:192 61:151 62:178 63:79 64:250 65:255 66:142 68:81 69:66 70:68 71:14 72:161 73:252 74:255 75:188 76:130 77:59 78:30 80:80 81:253 
1.234302828992215 0.9674243021893266 1.050048792932993 1.125 1.33528917966445 1.125 1.259547567565635 0.5902817913793488 1.113753195842828 0.701822256724104 0.8307458363157885 0.6846211857691384 1.038035692378533 0.4050693368580823 0.7261725131534434 0.3372659061460791 0.6623882867669183 0.6577400100905959 0.8079594459813055 0.2036900104764583 0.4202434099806069 0.1629124022689827 0.4051324028489267 0.04980468753407275 0.04980468753407275 0.0245807412375143 0.0245807412375143 0.0245807412375143 0.0245807412375143 1:255 2:253 3:255 4:211 5:87 6:209 7:255 8:253 9:255 10:254 11:253 12:242 13:46 14:25 15:8 16:224 17:251 18:166 19:250 20:255 21:130 22:82 23:254 24:116 25:65 26:255 27:121 28:251 29:255 30:136 31:200 32:255 33:255 34:71 35:240 36:134 37:252 38:255 39:160 40:223 41:253 42:253 43:115 44:246 45:115 46:254 47:255 48:219 49:255 50:255 51:251 52:169 53:219 54:131 55:255 56:253 57:255 58:187 59:220 60:255 61:122 62:181 63:65 64:253 65:254 66:213 68:38 69:131 70:15 71:80 72:193 73:252 74:255 75:183 76:143 77:131 79:8 80:192 81:255 
1.234294446759976 0.9676277621048287 1.049544165764304 1.125 1.335306996050748 1.125 1.259547567565635 0.5902824418527246 1.113679605761476 0.7018128781403566 0.8309161314720972 0.6846211857691384 1.038042427962447 0.405076090558484 0.726176340938349 0.3372657308079301 0.6618442679939063 0.6576709717443605 0.807360809729202 0.2036098660252368 0.4202434099806069 0.1633012916901002 0.405081833857342 0.04980468753407275 0.04980468753407275 0.0246309276793974 0.0246309276793974 0.0246309276793974 0.0246309276793974 1:254 2:255 3:249 4:182 5:123 6:250 7:255 8:253 9:255 10:253 11:255 12:208 15:65 16:238 17:250 18:177 19:251 20:255 21:144 22:74 23:224 24:137 25:109 26:255 27:126 28:251 29:255 30:138 31:203 32:255 33:255 34:98 35:243 36:123 37:253 38:255 39:120 40:238 41:252 42:252 43:115 44:238 45:153 46:252 47:255 48:132 49:214 50:255 51:240 52:131 53:255 54:123 55:252 56:255 57:173 58:94 59:243 60:214 61:116 62:200 63:89 64:251 65:255 66:120 68:38 69:69 70:4 71:12 72:199 73:253 74:255 75:177 76:179 77:111 78:8 79:69 80:169 81:255 
1.190528094430724 0.933116850085487 1.01279594186495 1.086039485499354 1.28815493935483 1.086041153824557 1.214685463547393 0.5688490035636087 1.074321956631129 0.6768015925042257 0.8017733075573887 0.6597841037359118 1.001029923341537 0.3908028444677844 0.700555560889832 0.3256178801699507 0.6388742116067883 0.6343187937754865 0.778525487076503 0.1969428340559649 0.4050900663382615 0.1571681702034793 0.3908042162422377 0.04753123280608218 0.04753123280608218 0.02376524188686102 0.02376524188686102 0.02376524188686102 0.02376524188686102 1:255 2:253 3:255 4:229 5:135 6:235 7:255 8:254 9:254 10:255 11:253 12:251 13:67 14:23 15:11 16:216 17:250 18:103 19:251 20:255 21:154 22:85 23:250 24:79 25:118 26:255 27:100 28:253 29:254 30:129 31:234 32:255 33:247 34:141 35:221 36:115 37:255 38:244 39:114 40:255 41:253 42:229 43:166 44:221 45:132 46:254 47:253 48:69 49:210 50:255 51:243 52:148 53:253 54:89 55:253 56:255 57:207 58:95 59:245 60:255 61:185 62:208 63:116 64:252 65:255 66:168 68:51 69:79 70:72 71:97 72:228 73:252 74:255 75:162 76:177 77:124 78:66 79:38 80:185 81:255 
1.234263926051204 0.9676277621048287 1.049476857531584 1.125 1.335448054718434 1.125 1.25964220756966 0.5902703015352396 1.11360561628531 0.7020206577511308 0.830582947953903 0.684615322666051 1.038046912175923 0.4051561249672137 0.7263019292062825 0.3376799482779139 0.6618445094171376 0.6577355189953459 0.8073619146991294 0.2034493662940804 0.4202434099806069 0.1633012916901002 0.4050710042989676 0.04980468750000927 0.04980468750000927 0.0253906250340728 0.0253906250340728 0.0253906250340728 0.0253906250340728 1:255 2:254 3:255 4:142 5:80 6:199 7:255 8:243 9:221 10:254 11:255 12:234 13:25 14:50 16:204 17:241 18:75 19:250 20:255 21:129 22:113 23:255 24:153 25:20 26:229 27:107 28:251 29:255 30:153 31:220 32:254 33:255 34:94 35:202 36:172 37:251 38:255 39:145 40:202 41:254 42:253 43:129 44:225 45:138 46:251 47:255 48:135 49:195 50:255 51:246 52:119 53:214 54:73 55:250 56:255 57:128 58:139 59:255 60:157 61:171 62:166 63:158 64:251 65:255 66:79 68:36 69:22 70:74 71:87 72:253 73:255 74:254 75:196 76:172 77:112 78:18 79:10 80:159 81:255 
1.190612390684316 0.933105148690229 1.012059719716834 1.085368327875458 1.28833125210329 1.085742193967841 1.214461225734964 0.5693658587200488 1.074152217022916 0.6767581090404125 0.8008005699720829 0.6597770275115592 1.001096009766412 0.3903192674965929 0.7005499338765714 0.3255222186700388 0.638075369980541 0.6341891075670949 0.7784535487772346 0.1965257583883835 0.4050070100429994 0.1570996174318441 0.3903229293585327 0.04755127869134151 0.04755127869134151 0.02379591223905081 0.02379591223905081 0.02379591223905081 0.02379591223905081 1:255 2:253 3:255 4:229 5:135 6:235 7:255 8:254 9:254 10:255 11:253 12:251 13:67 14:23 15:11 16:216 17:250 18:103 19:251 20:255 21:154 22:85 23:250 24:79 25:118 26:255 27:100 28:253 29:254 30:129 31:234 32:255 33:247 34:141 35:221 36:115 37:255 38:244 39:114 40:255 41:253 42:229 43:166 44:221 45:132 46:254 47:253 48:69 49:210 50:255 51:243 52:148 53:253 54:89 55:253 56:255 57:207 58:95 59:245 60:255 61:185 62:208 63:116 64:252 65:255 66:168 68:51 69:79 70:75 71:97 72:228 73:252 74:255 75:162 76:177 77:124 78:66 79:22 80:187 81:255 
1.234263926051204 0.9673952880291432 1.049476857531667 1.125 1.335524366822002 1.125 1.259651228874831 0.5902840206830131 1.113605616285303 0.7016802391008307 0.8305829479539031 0.684615322666051 1.03804691217531 0.4051667128579341 0.7262540044400313 0.3376799482779139 0.6623742080383184 0.6576709717443605 0.8073619146991294 0.2039538623812258 0.4198370538651943 0.1629313732819479 0.4050709396424854 0.04980468750000927 0.04980468750000927 0.02471298281306616 0.02471298281306616 0.02471298281306616 0.02471298281306616 1:255 2:253 3:255 4:200 5:97 6:200 7:255 8:247 9:250 10:254 11:254 12:242 13:42 14:37 15:16 16:216 17:234 18:121 19:252 20:255 21:184 22:107 23:253 24:169 25:47 26:238 27:77 28:252 29:255 30:149 31:188 32:255 33:255 34:126 35:232 36:127 37:252 38:255 39:120 40:222 41:254 42:252 43:103 44:224 45:115 46:251 47:255 48:142 49:191 50:255 51:253 52:84 53:228 54:102 55:253 56:255 57:204 58:152 59:255 60:211 61:100 62:221 63:76 64:251 65:255 66:162 67:4 68:59 69:55 70:62 71:89 72:194 73:251 74:255 75:146 76:25 80:150 81:255 
1.234263926051204 0.9673952880291432 1.049805389261479 1.125 1.335526376731453 1.125 1.259651228874831 0.590426666226348 1.113855642350186 0.7022151005803607 0.8309343410300875 0.6846015644405146 1.038048791604479 0.4043133227736834 0.7262299401466419 0.3376434541476044 0.6623073847208897 0.6576709717443605 0.807574503471734 0.2039944734027911 0.4198370538651943 0.1629124836818904 0.4050789358894087 0.04980468750000933 0.04980468750000933 0.02539062500000699 0.02539062500000699 0.02539062500000699 0.02539062500000699 1:255 2:254 3:255 4:158 5:170 6:255 7:255 8:254 9:255 10:254 11:255 12:238 13:26 15:78 16:236 17:253 18:173 19:252 20:255 21:174 22:88 23:216 24:107 25:129 26:255 27:76 28:252 29:255 30:170 31:164 32:255 33:255 34:142 35:250 36:151 37:252 38:255 39:146 40:212 41:252 42:251 43:165 44:241 45:140 46:252 47:255 48:143 49:232 50:255 51:255 52:149 53:242 54:105 55:252 56:255 57:174 58:103 59:243 60:253 61:111 62:197 63:50 64:250 65:255 66:145 68:22 69:80 70:57 71:67 72:185 73:252 74:255 75:195 76:133 77:46 78:23 79:10 80:170 81:255 
1.234263926051204 0.9673936399102309 1.049804687976333 1.125 1.33551847619509 1.125 1.259656089672165 0.5898103227424487 1.113855993010528 0.701764292711188 0.8309343512798744 0.6846015606978709 1.037382917768402 0.4051230847238922 0.7263137556073314 0.337646715342432 0.6618442679939063 0.6576920111765596 0.807574503471734 0.2041146182301857 0.4198370538651943 0.1629124022689641 0.4043197309166322 0.04942596559014389 0.04942596559014389 0.02539062500000466 0.02539062500000466 0.02539062500000466 0.02539062500000466 1:255 2:255 3:253 4:251 5:169 6:193 7:255 8:255 9:214 10:255 11:251 12:255 13:158 16:158 17:254 18:104 19:254 20:253 21:227 22:96 23:180 24:105 25:72 26:255 27:106 28:253 29:255 30:139 31:219 32:255 33:209 34:120 35:227 36:118 37:255 38:247 39:192 40:255 41:252 42:192 43:149 44:232 45:115 46:253 47:248 48:155 49:238 50:254 51:229 52:118 53:253 54:130 55:251 56:255 57:160 58:118 59:255 60:212 61:153 62:165 63:112 64:250 65:255 66:133 68:46 69:30 70:62 71:53 72:203 73:253 74:255 75:213 76:132 77:139 78:68 79:57 80:198 81:255 
1.189717696181418 0.9324947174111429 1.011858536760396 1.084812664697659 1.287264182362307 1.084512795691844 1.213925193109573 0.5685651957055635 1.073601355801951 0.6766873805495274 0.800988736078165 0.6593602648724908 1 0.3900657647263902 0.7001216641805113 0.325670737177355 0.6384486297146599 0.6338702562982522 0.778368168746389 0.1963835440752957 0.4048754923526112 0.1571180131380935 0.3900693379380259 0.04764466103331899 0.04764466103331899 0.02382233053273808 0.02382233053273808 0.02382233053273808 0.02382233053273808 1:255 2:253 3:255 4:157 5:107 6:212 7:255 8:240 9:235 10:255 11:254 12:253 13:33 15:2 16:218 17:227 18:73 19:252 20:255 21:178 22:109 23:215 24:183 25:95 26:243 27:117 28:253 29:255 30:197 31:182 32:255 33:255 34:137 35:148 36:202 37:253 38:255 39:191 40:122 41:251 42:254 43:176 44:193 45:154 46:252 47:255 48:171 49:152 50:255 51:244 52:118 53:213 54:75 55:251 56:255 57:136 58:102 59:238 60:178 61:195 62:127 63:159 64:253 65:255 66:50 68:12 69:5 70:73 71:103 72:255 73:255 74:249 75:157 76:188 77:108 78:68 79:57 80:211 81:255 
1.235007870782418 0.9673885835244397 1.049804687976334 1.125 1.335118175433027 1.125 1.259656090217236 0.5902732078440187 1.113855642440312 0.7017642921660235 0.8310578863127427 0.6846015566282235 1.037382917768402 0.4043135167213893 0.7263022161724384 0.3373855731718817 0.6623253932004524 0.6576920111765596 0.8075321951170285 0.2041740644827385 0.4197114592735425 0.163434699187456 0.4050710044249742 0.04927935515348025 0.04927935515348025 0.025390625 0.025390625 0.025390625 0.025390625 1:255 2:253 3:255 4:208 5:84 6:170 7:247 8:255 9:255 10:253 11:254 12:183 13:38 14:90 16:206 17:209 18:153 19:251 20:255 21:78 22:166 23:255 24:78 25:151 26:222 27:104 28:255 29:245 30:113 31:255 32:251 33:230 34:117 35:255 36:115 37:253 38:253 39:141 40:237 41:254 42:255 43:127 44:236 45:153 46:251 47:255 48:148 49:187 50:255 51:236 52:111 53:243 54:115 55:251 56:255 57:156 58:93 59:255 60:156 61:153 62:176 63:112 64:250 65:255 66:104 68:41 69:30 70:85 71:73 72:234 73:254 74:255 75:206 76:185 77:175 78:71 79:56 80:185 81:255 
1.234854026489807 0.9673880779122714 1.049476857531585 1.125 1.335466475699986 1.125 1.259656090217236 0.5902761004745654 1.113855642829601 0.7017642921660235 0.8310211433189214 0.6846015566282235 1.037382759997323 0.4046925372839118 0.7264818149463571 0.3373855731718777 0.662001027792283 0.6576920111765596 0.8074312147358348 0.2041910527341511 0.4203320666382991 0.1633014199723664 0.4050710045034043 0.04927925565332131 0.04927925565332131 0.025390625 0.025390625 0.025390625 0.025390625 1:255 2:253 3:255 4:178 5:142 6:255 7:255 8:253 9:255 10:255 11:254 12:252 13:35 15:60 16:207 17:250 18:97 19:253 20:255 21:213 22:64 23:216 24:139 25:92 26:255 27:100 28:252 29:255 30:167 31:202 32:255 33:255 34:130 35:249 36:156 37:252 38:255 39:149 40:231 41:252 42:252 43:169 44:247 45:145 46:252 47:255 48:150 49:206 50:255 51:255 52:103 53:233 54:94 55:253 56:255 57:215 58:103 59:255 60:233 61:103 62:220 63:100 64:250 65:255 66:147 68:50 69:62 70:76 71:65 72:192 73:253 74:255 75:216 76:166 77:91 78:77 79:23 80:150 81:255 
1.234854026489807 0.9673872925437518 1.049804687432334 1.125 1.335415124521034 1.125 1.259674777429324 0.5906792790002031 1.113855642795528 0.7017642918934413 0.8309343725069873 0.6846014819974591 1.038046912175923 0.4050693804653729 0.7264818149463571 0.3373853164795601 0.6620028076908642 0.6576920111765596 0.8073266741853166 0.2043278365606611 0.4197114592735425 0.1633012915878818 0.4051587191987833 0.04926185525657645 0.04926185525657645 0.025390625 0.025390625 0.025390625 0.025390625 1:255 2:254 3:255 4:226 5:157 6:255 7:255 8:253 9:255 10:253 11:254 12:210 13:17 14:8 15:73 16:230 17:221 18:104 19:252 20:255 21:162 22:73 23:235 24:87 25:86 26:252 27:73 28:250 29:255 30:121 31:166 32:255 33:255 34:106 35:233 36:160 37:251 38:255 39:79 40:165 41:253 42:253 43:134 44:228 45:145 46:251 47:255 48:144 49:200 50:255 51:250 52:121 53:211 54:71 55:252 56:255 57:177 58:123 59:255 60:193 61:130 62:129 63:131 64:251 65:255 66:82 68:54 69:52 70:40 71:106 72:254 73:253 74:255 75:143 76:164 77:135 78:45 79:30 80:207 81:255 
1.23469936629408 0.9673878177368026 1.049976207603936 1.125 1.335599632739581 1.125 1.259674777429324 0.5906698796525179 1.11364964096938 0.7021500092233324 0.8307232703514798 0.6846014819974591 1.038042427962447 0.405076090422193 0.7271368925651472 0.3373853164795601 0.6620028076908642 0.6582361052956363 0.8073266741853166 0.2043363773424811 0.4199105337088812 0.1633012916560274 0.4043197309166321 0.04926185525657645 0.04926185525657645 0.025390625 0.025390625 0.025390625 0.025390625 1:255 2:254 3:255 4:237 5:156 6:221 7:255 8:254 9:255 10:255 11:252 12:249 13:112 14:6 15:21 16:225 17:254 18:175 19:251 20:255 21:154 22:102 23:233 24:94 25:42 26:255 27:103 28:251 29:255 30:105 31:185 32:255 33:246 34:59 35:244 36:142 37:252 38:255 39:117 40:219 41:252 42:255 43:101 44:242 45:115 46:252 47:255 48:183 49:238 50:255 51:252 52:128 53:245 54:132 55:255 56:255 57:255 58:183 59:235 60:255 61:84 62:97 63:69 64:253 65:255 66:218 68:14 69:65 72:159 73:254 74:255 75:241 76:181 77:73 78:25 79:58 80:187 81:255 
1.23469936629408 0.967424210381775 1.049804687432333 1.125 1.335988415296947 1.125 1.259674777429324 0.5906119163317314 1.113622534876102 0.7021500092233324 0.8307204655828004 0.6846014819974585 1.03796751825856 0.4050906720475448 0.7271368925651472 0.3373853164795601 0.6623793653673848 0.658434869161436 0.8071114908681424 0.2035612401652259 0.4202880005499721 0.1633012916794353 0.4046954330003341 0.04925100577029828 0.04925100577029828 0.025390625 0.025390625 0.025390625 0.025390625 1:255 2:253 3:255 4:171 5:90 6:226 7:255 8:248 9:243 10:254 11:254 12:241 13:17 15:65 16:192 17:250 18:143 19:252 20:255 21:174 22:83 23:199 24:225 25:27 26:219 27:172 28:253 29:255 30:207 31:182 32:255 33:255 34:118 35:142 36:191 37:252 38:255 39:180 40:113 41:252 42:254 43:183 44:204 45:185 46:252 47:255 48:177 49:161 50:254 51:252 52:139 53:218 54:153 55:251 56:255 57:130 58:191 59:255 60:195 61:169 62:167 63:166 64:251 65:255 66:65 67:24 68:79 69:67 70:152 71:89 72:243 73:254 74:255 75:130 76:82 77:16 80:151 81:255 
1.190676545705889 0.9331062303120409 1.012801512295155 1.085609493997273 1.287780947314842 1.086039186908313 1.214686216798979 0.5688514459056682 1.0743222386557 0.6768642237053575 0.8008662721350855 0.6598043692578814 1.001035442843785 0.3908000680663384 0.7005555073048904 0.3256179056982027 0.638874368515526 0.6345270725762743 0.7785256425051195 0.1967829224775906 0.4050716863261743 0.1576871426848823 0.3908017763715773 0.04753129929050531 0.04753129929050531 0.02376565182958712 0.02376565182958712 0.02376565182958712 0.02376565182958712 1:255 2:253 3:255 4:229 5:135 6:235 7:255 8:253 9:252 10:255 11:253 12:251 13:67 14:23 15:11 16:218 17:242 18:81 19:251 20:255 21:154 22:85 23:250 24:79 25:119 26:255 27:94 28:253 29:254 30:129 31:234 32:255 33:247 34:141 35:221 36:117 37:255 38:244 39:114 40:255 41:253 42:229 43:166 44:221 45:132 46:254 47:253 48:69 49:210 50:255 51:243 52:148 53:253 54:89 55:253 56:255 57:207 58:95 59:245 60:255 61:185 62:208 63:116 64:252 65:255 66:168 68:51 69:79 70:75 71:97 72:228 73:252 74:255 75:162 76:177 77:124 78:66 79:22 80:187 81:255 
1.221631448322262 0.9573648259999683 1.03883387791067 1.113842803489573 1.321565669698855 1.114408054173091 1.246459912522914 0.5844233914786697 1.102616746400906 0.6948010677906877 0.8219969117766894 0.6769653694090294 1.027017673481212 0.4009776107045482 0.7188729238394707 0.3339116210367684 0.6555836568995271 0.6510560086452656 0.7996733206972544 0.2020807818940061 0.4154237577410503 0.1617515383322842 0.4009792066750457 0.04849550954957838 0.04849550954957838 0.02427784354860785 0.02427784354860785 0.02427784354860785 0.02427784354860785 1:255 2:255 3:254 4:255 5:131 6:210 7:255 8:255 9:243 10:255 11:252 12:255 13:167 16:172 17:255 18:106 19:254 20:254 21:226 22:64 23:214 24:120 25:96 26:255 27:85 28:252 29:255 30:133 31:177 32:255 33:255 34:122 35:234 36:103 37:255 38:234 39:146 40:255 41:252 42:228 43:188 44:206 45:167 46:255 47:218 48:117 49:255 50:255 51:206 52:155 53:244 54:170 55:253 56:254 57:110 58:185 59:250 60:202 61:155 62:189 63:107 64:250 65:255 66:144 68:30 69:53 70:32 71:24 72:178 73:254 74:255 75:225 76:147 77:161 78:30 80:162 81:255 
1.23469936629408 0.9674242103755966 1.049804687976333 1.125 1.335999696213446 1.125 1.259674777429324 0.5906076920299579 1.113848677727963 0.7021500092232972 0.8310337599787778 0.6846014819974585 1.037911584709753 0.4051298907311195 0.7271368925651472 0.3381778214373158 0.6624019019131179 0.6584342178580257 0.8070733236038882 0.204336377342481 0.420243409980607 0.1629124022689828 0.4050710042989676 0.04925092277800724 0.04925092277800724 0.025390625 0.025390625 0.025390625 0.025390625 1:255 2:253 3:255 4:218 5:132 6:223 7:255 8:253 9:252 10:255 11:253 12:252 13:51 15:31 16:224 17:250 18:169 19:252 20:255 21:198 22:81 23:214 24:112 25:87 26:255 27:140 28:252 29:255 30:123 31:197 32:255 33:255 34:99 35:243 36:93 37:253 38:255 39:121 40:232 41:251 42:253 43:127 44:251 45:103 46:252 47:255 48:173 49:174 50:255 51:253 52:123 53:230 54:128 55:255 56:255 57:245 58:84 59:221 60:255 61:115 62:111 63:51 64:253 65:255 66:206 68:4 69:62 70:9 71:18 72:197 73:253 74:255 75:224 76:119 77:142 78:45 79:40 80:175 81:255 
1.23469936629408 0.9674237657535645 1.049805389261461 1.125 1.335518670065635 1.125 1.258755165291535 0.5904227173282028 1.113855642795567 0.7019980011640605 0.8303994100977625 0.6845812864267836 1.03791202710688 0.4050906720475448 0.7271368925651472 0.3381778214373158 0.6623742080383184 0.6575025356220431 0.8070730674036143 0.204336377342481 0.4198370538651943 0.1629115212425574 0.4050789357531175 0.04924340319223342 0.04924340319223342 0.025390625 0.025390625 0.025390625 0.025390625 1:255 2:253 3:255 4:152 5:79 6:178 7:255 8:252 9:226 10:254 11:254 12:235 13:70 14:56 15:11 16:202 17:243 18:76 19:252 20:255 21:172 22:156 23:255 24:192 25:56 26:255 27:119 28:251 29:255 30:150 31:203 32:253 33:255 34:117 35:254 36:130 37:252 38:255 39:117 40:205 41:254 42:255 43:140 44:242 45:134 46:251 47:255 48:113 49:185 50:254 51:239 52:133 53:238 54:71 55:253 56:255 57:206 58:107 59:255 60:246 61:85 62:219 63:42 64:253 65:255 66:235 68:55 69:70 70:23 71:76 72:178 73:254 74:255 75:234 76:89 77:70 78:55 79:2 80:160 81:255 
1.23469936629408 0.9674243021893266 1.049804688542075 1.125 1.335448054718434 1.125 1.258755165291535 0.5904398288228063 1.113818863144213 0.7019222514111063 0.8310337599787778 0.6845812864267836 1.037911225997501 0.4050800176647363 0.7271368925651472 0.3381778214699739 0.6623882867669368 0.6578325072734386 0.80697118556459 0.2039944735390823 0.420151102191138 0.1633012916901001 0.4050926927055155 0.04924338297783326 0.04924338297783326 0.025390625 0.025390625 0.025390625 0.025390625 1:255 2:254 3:254 4:249 5:129 6:219 7:255 8:255 9:231 10:255 11:253 12:255 13:125 15:17 16:181 17:255 18:100 19:254 20:255 21:237 22:8 23:154 24:190 25:45 26:248 27:109 28:251 29:255 30:146 31:151 32:255 33:255 34:162 35:245 36:138 37:254 38:255 39:168 40:251 41:251 42:205 43:176 44:213 45:109 46:255 47:249 48:141 49:255 50:255 51:171 52:135 53:225 54:83 55:252 56:254 57:140 58:142 59:252 60:153 61:150 62:204 63:113 64:250 65:255 66:132 68:29 69:9 70:67 71:44 72:197 73:254 74:255 75:211 76:179 77:103 78:37 79:27 80:179 81:255 
1.23469936629408 0.9674257512622231 1.049805389261461 1.125 1.335025548136789 1.125 1.258755165291535 0.5904574963111624 1.113818863144213 0.7020790789506393 0.8304101425806674 0.6845812864267662 1.037926409763662 0.4050800176647363 0.7271368925651472 0.3381776492122898 0.6623882867669183 0.6578493673774208 0.8079594459813055 0.2042029328573239 0.41984681619954 0.1633014199723664 0.4051317503277859 0.04912093668826856 0.04912093668826856 0.025390625 0.025390625 0.025390625 0.025390625 1:255 2:253 3:255 4:216 5:111 6:254 7:255 8:254 9:239 10:255 11:252 12:250 13:82 15:45 16:219 17:255 18:87 19:254 20:255 21:230 22:50 23:213 24:140 25:47 26:221 27:165 28:253 29:255 30:195 31:109 32:255 33:255 34:123 35:183 36:190 37:251 38:255 39:150 40:134 41:253 42:255 43:130 44:193 45:106 46:252 47:255 48:126 49:216 50:254 51:207 52:114 53:204 54:110 55:252 56:255 57:178 58:188 59:255 60:107 61:199 62:108 63:184 64:254 65:240 66:40 68:41 69:11 70:85 71:60 72:236 73:255 74:246 75:105 76:142 77:72 78:45 79:9 80:139 81:255 
1.23469936629408 0.9679108406647851 1.049476857531585 1.125 1.335133549286508 1.125 1.258755165291535 0.5904483749976129 1.113855993010528 0.701822256724104 0.8304849531583323 0.6845812864267662 1.037922638927575 0.4050800176647363 0.7262923390965197 0.3381776492296236 0.6623352956888331 0.6576340025869947 0.8074744321390099 0.2041910527341511 0.4198998505317178 0.1633012916901001 0.4051317503277859 0.04899855730338143 0.04899855730338143 0.025390625 0.025390625 0.025390625 0.025390625 1:255 2:253 3:255 4:221 5:111 6:255 7:255 8:254 9:255 10:255 11:253 12:248 13:87 15:65 16:245 17:219 18:140 19:252 20:255 21:172 22:125 23:224 24:82 25:142 26:254 27:96 28:251 29:255 30:144 31:217 32:255 33:253 34:103 35:241 36:112 37:252 38:255 39:160 40:166 41:252 42:255 43:184 44:179 45:169 46:254 47:255 48:215 49:142 50:255 51:255 52:178 53:210 54:127 55:255 56:254 57:246 58:105 59:239 60:253 61:134 62:169 63:104 64:251 65:255 66:119 68:29 69:62 70:39 71:108 72:238 73:253 74:255 75:163 76:130 77:145 78:33 79:38 80:227 81:255 
1.23469936629408 0.9679108406647851 1.049804687432334 1.125 1.335135981820332 1.125 1.259063310687862 0.5898281872896869 1.11360561634016 0.7018128781403566 0.8304245666761171 0.6845800875853007 1.037967193842945 0.4050800176647317 0.7262923390965197 0.3373855731718816 0.6623073847208896 0.6575385333015877 0.8079594459813131 0.2037346580938557 0.4201486404248308 0.1633012916901002 0.4051317503277859 0.04897189531088697 0.04897189531088697 0.025390625 0.025390625 0.025390625 0.025390625 1:255 2:253 3:254 4:216 5:74 6:122 7:255 8:254 9:179 10:255 11:252 12:255 13:69 14:48 15:32 16:139 17:255 18:103 19:253 20:255 21:223 22:46 23:249 24:241 25:41 26:210 27:180 28:252 29:255 30:171 31:141 32:255 33:255 34:165 35:216 36:141 37:252 38:255 39:137 40:212 41:253 42:238 43:122 44:229 45:129 46:254 47:255 48:157 49:255 50:255 51:176 52:152 53:195 54:128 55:251 56:255 57:148 58:172 59:242 60:150 61:198 62:148 63:113 64:250 65:255 66:130 68:22 69:37 70:52 71:72 72:207 73:252 74:255 75:192 76:116 77:85 78:30 79:30 80:162 81:255 
1.23469936629408 0.9679108406504182 1.049804687432334 1.125 1.335170421685832 1.125 1.259078396763992 0.5898548601591052 1.11360561634016 0.7020123236501784 0.8306329806671225 0.6845800875713706 1.038046509702588 0.405080017664731 0.7262771092767213 0.337379609338056 0.6620028078271553 0.6578133738183402 0.8079616380573407 0.2042029328573239 0.4197961214782364 0.1633012915878818 0.405131635672905 0.04897172305610487 0.04897172305610487 0.025390625 0.025390625 0.025390625 0.025390625 1:255 2:254 3:255 4:182 5:83 6:196 7:255 8:212 9:148 10:252 11:255 12:189 14:89 16:212 17:188 18:113 19:252 20:255 21:98 22:171 23:255 24:122 25:141 26:214 27:143 28:255 29:246 30:100 31:255 32:252 33:249 34:163 35:235 36:123 37:255 38:248 39:108 40:246 41:254 42:253 43:141 44:246 45:74 46:252 47:255 48:172 49:201 50:255 51:255 52:164 53:239 54:104 55:252 56:255 57:175 58:98 59:246 60:220 61:176 62:153 63:83 64:251 65:255 66:108 68:19 69:12 70:51 71:48 72:202 73:254 74:255 75:219 76:187 77:86 78:49 80:162 81:255 
1.23469936629408 0.9679108406504181 1.049804687963759 1.125 1.33518642981304 1.125 1.259308865323559 0.5904554101425772 1.113855993010528 0.7020612334720264 0.8309161314720972 0.6845800872907808 1.038048791604479 0.405080004388133 0.726277036855431 0.3373418301379457 0.6620028076908642 0.6576509719232647 0.8078750648282599 0.204336377342481 0.4200830723219799 0.1633012915878818 0.4051247222465799 0.04897172305610487 0.04897172305610487 0.025390625 0.025390625 0.025390625 0.025390625 1:255 2:255 3:253 4:255 5:140 6:229 7:255 8:255 9:255 10:255 11:253 12:255 13:147 14:26 15:13 16:208 17:222 18:91 19:252 20:255 21:149 22:91 23:248 24:83 25:142 26:230 27:113 28:254 29:234 30:101 31:244 32:255 33:210 34:193 35:207 36:146 37:255 38:210 39:123 40:255 41:253 42:230 43:131 44:247 45:145 46:255 47:248 48:150 49:255 50:255 51:248 52:92 53:255 54:85 55:255 56:255 57:253 58:132 59:243 60:250 61:142 62:201 63:48 64:251 65:255 66:168 68:19 69:29 70:96 71:63 72:159 73:253 74:255 75:213 76:181 77:104 78:86 79:9 80:154 81:255 
1.23469936629408 0.9673948806776149 1.049976207603936 1.125 1.335186025447088 1.125 1.259309600268456 0.5904584695497906 1.113858161823158 0.7020653443437949 0.8309610353935496 0.6845800872907808 1.037901590558517 0.4050800043881315 0.7261465210519842 0.3373416673120931 0.6619880050060989 0.6577635556560206 0.8079592799967372 0.2035605762167115 0.4199039559224019 0.1634493201180911 0.4051247222465799 0.04897172305610487 0.04897172305610487 0.025390625 0.025390625 0.025390625 0.025390625 1:255 2:253 3:255 4:218 5:157 6:255 7:255 8:253 9:255 10:254 11:254 12:238 13:43 14:17 15:44 16:247 17:238 18:114 19:251 20:255 21:148 22:61 23:238 24:68 25:111 26:255 27:89 28:251 29:255 30:134 31:189 32:255 33:255 34:60 35:240 36:125 37:253 38:255 39:136 40:237 41:254 42:250 43:107 44:237 45:119 46:253 47:255 48:135 49:249 50:253 51:244 52:136 53:255 54:123 55:254 56:255 57:220 58:202 59:255 60:226 61:100 62:234 63:117 64:254 65:255 66:225 68:129 69:154 70:11 71:20 72:127 73:253 74:255 75:218 76:86 77:17 80:84 81:255 
1.23469936629408 0.9674257512622231 1.049805389261461 1.125 1.335194568672897 1.125 1.259141984348083 0.5902840206925428 1.113855642445513 0.7017093315338504 0.8303994100977625 0.6845781210394959 1.037911298595331 0.4050799479708052 0.726176340938349 0.3376803599086122 0.6618368882056391 0.6577244480232491 0.8077344579808716 0.2034570117830299 0.4200830723219799 0.1629115212425574 0.4050940048871123 0.04897163692726281 0.04897163692726281 0.025390625 0.025390625 0.025390625 0.025390625 1:255 2:254 3:255 4:223 5:132 6:215 7:255 8:255 9:255 10:253 11:254 12:223 13:16 15:14 16:217 17:243 18:140 19:251 20:255 21:140 22:61 23:215 24:88 25:126 26:248 27:138 28:253 29:255 30:105 31:231 32:255 33:245 34:92 35:253 36:137 37:253 38:255 39:120 40:229 41:252 42:255 43:109 44:220 45:150 46:252 47:255 48:163 49:238 50:255 51:248 52:94 53:234 54:132 55:252 56:255 57:175 58:157 59:255 60:191 61:184 62:177 63:79 64:251 65:255 66:91 68:54 69:59 70:85 71:41 72:192 73:253 74:255 75:167 76:176 77:134 78:40 80:107 81:255 
1.234375701924762 0.9673947165267329 1.049976207576959 1.125 1.3352032561847 1.125 1.259141898125159 0.5907711008354313 1.113855642440312 0.701251204483318 0.8309394325940768 0.6845781210394959 1.037911298322789 0.4050799479708052 0.726303464346639 0.3373855731718817 0.6618651302219825 0.65781413712955 0.8079481986359975 0.2041740644827384 0.4200830723219798 0.1633012916901002 0.4050926927055155 0.04897163692726281 0.04897163692726281 0.025390625 0.025390625 0.025390625 0.025390625 1:255 2:254 3:254 4:222 5:155 6:255 7:255 8:254 9:255 10:255 11:252 12:255 13:79 15:63 16:232 17:254 18:155 19:253 20:255 21:227 22:46 23:193 24:104 25:90 26:255 27:92 28:252 29:255 30:138 31:159 32:255 33:255 34:139 35:249 36:162 37:253 38:255 39:114 40:235 41:252 42:253 43:154 44:247 45:123 46:251 47:255 48:149 49:180 50:254 51:253 52:161 53:228 54:99 55:253 56:255 57:192 58:108 59:255 60:255 61:152 62:196 63:105 64:251 65:255 66:156 68:70 69:101 70:96 71:47 72:165 73:251 74:255 75:171 76:57 77:9 78:2 80:133 81:255 
1.234375701924762 0.9673126805929526 1.049172568452409 1.125 1.335284018419837 1.125 1.25917296960371 0.5902572201672068 1.113855642440863 0.7016185809337305 0.8310318138591282 0.6845781210394959 1.037932276854579 0.4050760905584842 0.7265004478114473 0.3381778214699739 0.6623991056331824 0.6578307775703045 0.8079616380573407 0.2037596053676952 0.4201511021911379 0.1633012916901002 0.405081833857342 0.04986529575315463 0.04986529575315463 0.025390625 0.025390625 0.025390625 0.025390625 1:255 2:253 3:255 4:215 5:125 6:224 7:255 8:251 9:228 10:255 11:254 12:255 13:34 15:15 16:242 17:219 18:85 19:251 20:255 21:153 22:57 23:214 24:116 25:115 26:255 27:86 28:251 29:255 30:150 31:198 32:255 33:255 34:119 35:197 36:186 37:253 38:255 39:211 40:163 41:251 42:251 43:182 44:155 45:190 46:252 47:255 48:185 49:114 50:255 51:255 52:139 53:217 54:103 55:252 56:255 57:183 58:121 59:238 60:196 61:143 62:173 63:126 64:251 65:255 66:84 67:6 68:15 69:11 70:52 71:93 72:255 73:254 74:255 75:203 76:174 77:145 78:15 79:34 80:227 81:254 
1.234375701924762 0.967487797895916 1.049172568452409 1.125 1.335261563178829 1.125 1.259377799844873 0.5902570531574072 1.113679605761476 0.7017442581989837 0.8305829479539031 0.6845781210394959 1.037606964925932 0.4050760905584842 0.7265004478114845 0.3381778214699739 0.6623882867669183 0.6578927236184577 0.8073619146991294 0.204327836560661 0.4202434099806068 0.1633012916794352 0.405081833857342 0.04897172305610481 0.04897172305610481 0.02452173950986808 0.02452173950986808 0.02452173950986808 0.02452173950986808 1:254 2:255 3:241 4:145 5:162 6:227 7:245 8:255 9:254 10:250 11:255 12:142 13:30 14:36 15:2 16:93 17:251 18:252 19:254 20:255 21:226 22:243 23:241 24:113 25:16 26:173 27:255 28:255 29:255 30:255 31:255 32:254 33:255 34:135 35:170 36:255 37:255 38:255 39:252 40:252 41:249 42:255 43:172 44:212 45:255 46:255 47:255 48:255 49:255 50:255 51:230 52:128 53:255 54:253 55:254 56:255 57:227 58:199 59:222 60:129 61:183 62:255 63:252 64:253 65:255 66:56 68:8 69:14 70:117 71:249 72:254 73:255 74:250 75:181 76:193 77:118 78:54 80:216 81:255 
1.234375701924762 0.9674257512622231 1.049172568452409 1.125 1.335804978505981 1.125 1.259465110423362 0.5904487208352378 1.113965478118483 0.7018304584410574 0.8306346684699636 0.6845440990705476 1.037916460668521 0.405076090422193 0.7262539375774904 0.3373855731718816 0.662401477020767 0.6576359569002821 0.8079685574470122 0.2041910527341511 0.419796033789883 0.1633012916560274 0.4050818338573373 0.04897163692726281 0.04897163692726281 0.02452169644544711 0.02452169644544711 0.02452169644544711 0.02452169644544711 1:255 2:252 3:255 4:156 5:91 6:178 7:255 8:255 9:242 10:255 11:253 12:249 13:71 14:96 15:43 16:209 17:255 18:80 19:253 20:255 21:193 22:97 23:255 24:215 25:87 26:253 27:58 28:251 29:255 30:138 31:193 32:251 33:255 34:86 35:216 36:109 37:252 38:255 39:92 40:199 41:254 42:255 43:164 44:239 45:155 46:251 47:255 48:98 49:175 50:255 51:232 52:99 53:249 54:107 55:251 56:255 57:167 58:80 59:255 60:200 61:112 62:194 63:84 64:250 65:255 66:114 68:34 69:50 70:59 71:65 72:201 73:253 74:255 75:189 76:138 77:81 78:29 80:174 81:255 
1.234375701924762 0.9676277621048287 1.049172568452409 1.125 1.335194919306498 1.125 1.259460976773885 0.590426666226348 1.11404205294781 0.7017093315338504 0.8310318138591282 0.6845440990705476 1.037382936050244 0.405076090422193 0.7262539375774904 0.3373855731718816 0.6624019019131179 0.6578927236210013 0.8078750648282599 0.203979789999398 0.420151102191138 0.1633012916560274 0.4050818338573366 0.04980468753407275 0.04980468753407275 0.02464000237691344 0.02464000237691344 0.02464000237691344 0.02464000237691344 1:255 2:254 3:254 4:233 5:161 6:245 7:255 8:255 9:255 10:255 11:252 12:255 13:107 14:5 15:21 16:199 17:255 18:112 19:253 20:255 21:217 22:75 23:220 24:90 25:71 26:255 27:52 28:251 29:255 30:140 31:194 32:255 33:253 34:87 35:236 36:112 37:252 38:255 39:86 40:200 41:253 42:255 43:164 44:242 45:159 46:251 47:255 48:107 49:177 50:253 51:248 52:119 53:246 54:126 55:252 56:255 57:181 58:121 59:255 60:200 61:128 62:171 63:96 64:251 65:255 66:128 68:56 69:48 70:56 71:30 72:198 73:253 74:255 75:217 76:179 77:120 78:62 80:145 81:255 
1.234375701924762 0.9676277621006075 1.049173983500358 1.125 1.335333241269818 1.125 1.259461791172835 0.590440768499845 1.11400395649428 0.7022151005803607 0.8309161314720972 0.6845247263252294 1.037382759997323 0.405069380465373 0.7262466799716637 0.3381778214699739 0.66206348926654 0.6582361052956363 0.807961459004538 0.2037346580938557 0.4202434099806069 0.1633012915878818 0.4050818325741802 0.04986529575315463 0.04986529575315463 0.025390625 0.025390625 0.025390625 0.025390625 1:254 2:255 3:247 4:122 5:68 6:185 7:255 8:230 9:217 10:253 11:255 12:220 13:17 14:83 15:8 16:220 17:212 18:164 19:251 20:255 21:114 22:136 23:255 24:142 25:80 26:255 27:154 28:252 29:255 30:88 31:207 32:252 33:255 34:70 35:231 36:117 37:252 38:255 39:162 40:231 41:253 42:255 43:93 44:226 45:132 46:252 47:255 48:129 49:211 50:255 51:237 52:157 53:250 54:93 55:252 56:255 57:171 58:101 59:231 60:204 61:144 62:168 63:69 64:251 65:255 66:153 68:9 69:38 70:11 71:1 72:167 73:254 74:255 75:233 76:188 77:112 78:63 80:117 81:255 
1.234375701924762 0.9677409060838892 1.049804687432334 1.125 1.335466474549553 1.125 1.259547567565635 0.5904448801593274 1.113848677742395 0.7020740738694598 0.8308210121243846 0.6845247262754637 1.037911298322789 0.4051298907311195 0.7263022161724384 0.3373855731718776 0.6618442679939063 0.657444889911821 0.8079594459813055 0.203731034920983 0.4202434097080695 0.1633012915878818 0.4050818325741802 0.04984523328676005 0.04984523328676005 0.025390625 0.025390625 0.025390625 0.025390625 1:255 2:254 3:255 4:206 5:162 6:255 7:255 8:255 9:255 10:253 11:254 12:226 13:20 14:7 15:76 16:251 17:203 18:175 19:251 20:255 21:149 22:112 23:231 24:28 25:130 26:222 27:86 28:250 29:255 30:128 31:184 32:255 33:237 34:104 35:255 36:98 37:251 38:255 39:147 40:200 41:253 42:255 43:131 44:208 45:170 46:252 47:255 48:184 49:195 50:253 51:255 52:155 53:212 54:137 55:253 56:255 57:203 58:130 59:255 60:241 61:165 62:228 63:100 64:251 65:255 66:110 68:64 69:81 70:95 71:50 72:162 73:252 74:255 75:157 76:84 77:62 80:84 81:254 
1.234375701924762 0.967487797895916 1.049804687432334 1.125 1.335135981768573 1.125 1.259547567565635 0.590426666226348 1.113827653757319 0.7017412527461894 0.8306949448396174 0.6845247261871734 1.037898743839574 0.405159174205362 0.7261769263350244 0.3381934560943334 0.6623253932004524 0.6574402993488024 0.8073619146991294 0.2039668472762941 0.4201511021911379 0.1633012915878818 0.4050818323016398 0.04980468761073659 0.04980468761073659 0.025390625 0.025390625 0.025390625 0.025390625 1:255 2:254 3:255 4:130 5:74 6:185 7:255 8:244 9:214 10:253 11:255 12:226 13:5 14:38 16:174 17:242 18:79 19:250 20:255 21:133 22:116 23:255 24:164 25:43 26:247 27:111 28:251 29:255 30:135 31:199 32:255 33:255 34:104 35:220 36:169 37:251 38:255 39:139 40:194 41:254 42:255 43:152 44:231 45:107 46:251 47:255 48:139 49:200 50:255 51:225 52:130 53:226 54:82 55:251 56:255 57:135 58:173 59:255 60:157 61:168 62:174 63:164 64:251 65:255 66:84 68:39 69:29 70:64 71:76 72:250 73:252 74:255 75:168 76:132 77:109 78:45 79:23 80:161 81:255 
1.23437497955748 0.9673892859648554 1.049804670252081 1.125974914548125 1.335306526056141 1.125856057644233 1.259710982418546 0.5902840103937644 1.113855623380083 0.7015663577822332 0.8308323328998215 0.6845247144311404 1.037913352624254 0.4050692874744252 0.7262299274231451 0.3381776433287782 0.6620010162928978 0.6578927121244944 0.8079592659194506 0.20397978644066 0.4200830650374031 0.1634511598846287 0.4050709325759139 0.04980468675891697 0.04980468675891697 0.02462170144899684 0.02462170144899684 0.02462170144899684 0.02462170144899684 1:255 2:253 3:255 4:210 5:119 6:236 7:255 8:255 9:255 10:255 11:254 12:252 13:48 14:12 15:21 16:228 17:242 18:148 19:251 20:255 21:150 22:82 23:240 24:96 25:88 26:254 27:67 28:251 29:255 30:138 31:203 32:255 33:255 34:86 35:249 36:123 37:252 38:255 39:178 40:229 41:253 42:252 43:150 44:208 45:180 46:253 47:255 48:206 49:141 50:255 51:255 52:143 53:179 54:185 55:255 56:255 57:252 58:80 59:255 60:255 61:109 62:174 63:116 64:252 65:255 66:168 68:61 69:60 70:7 71:61 72:206 73:253 74:255 75:181 76:132 77:118 79:25 80:232 81:255 
1.234375001362835 0.9673859834915407 1.049804687432333 1.125 1.335184708323015 1.125981529427792 1.259656090217236 0.5904487208352378 1.114366913631267 0.7021500092233324 0.8310060736873456 0.6845247261871734 1.037911584709756 0.4050799479708051 0.7271368925651472 0.3373853164710418 0.6620028076908642 0.6578133738183402 0.8074744321390099 0.2039944734027911 0.4199404327019621 0.1633012915878818 0.4050818323016384 0.04980468760221835 0.04980468760221835 0.025390625 0.025390625 0.025390625 0.025390625 1:255 2:254 3:255 4:212 5:80 6:178 7:255 8:246 9:217 10:254 11:254 12:235 13:33 14:57 15:8 16:200 17:188 18:78 19:251 20:255 21:124 22:144 23:255 24:140 25:132 26:236 27:58 28:254 29:254 30:95 31:239 32:253 33:241 34:94 35:249 36:84 37:254 38:253 39:93 40:232 41:253 42:252 43:101 44:247 45:124 46:251 47:255 48:149 49:151 50:255 51:253 52:97 53:235 54:114 55:253 56:255 57:223 58:32 59:218 60:241 61:109 62:218 63:84 64:250 65:255 66:148 68:19 69:50 70:27 71:45 72:188 73:252 74:255 75:185 76:153 77:170 78:39 79:29 80:121 81:255 
1.234375001362835 0.9679048809986112 1.049217493452155 1.125 1.335519445499939 1.125979201144873 1.259674777429324 0.589874615273643 1.114221104070432 0.7013545727855155 0.8310578863127427 0.6840522354546901 1.037382936050244 0.4043133227736835 0.7271368925651472 0.3381778214699739 0.6623907696845575 0.6576359569002821 0.8074606920393692 0.2039668472762941 0.4197961214782363 0.1630062065373584 0.4050789358894087 0.04980468760221835 0.04980468760221835 0.025390625 0.025390625 0.025390625 0.025390625 1:255 2:253 3:255 4:192 5:166 6:245 7:255 8:254 9:255 10:254 11:254 12:232 13:20 15:25 16:246 17:205 18:154 19:250 20:255 21:130 22:113 23:210 24:100 25:120 26:246 27:36 28:251 29:255 30:142 31:206 32:255 33:255 34:99 35:247 36:116 37:251 38:255 39:110 40:185 41:252 42:252 43:146 44:221 45:167 46:253 47:255 48:152 49:199 50:254 51:255 52:119 53:238 54:140 55:252 56:255 57:199 58:132 59:255 60:216 61:132 62:161 63:117 64:250 65:255 66:103 68:53 69:21 70:64 71:109 72:226 73:254 74:255 75:202 76:143 77:80 78:91 79:56 80:215 81:255 
1.234375001362835 0.9673947165267329 1.049217493491879 1.125 1.335180282178828 1.125807317384893 1.259674777429324 0.5898103227424487 1.114130719942504 0.7016467848030373 0.8310060736873456 0.6845781210394959 1.038042427962447 0.4043132891506936 0.7271368925651472 0.33738531647956 0.6618430653492051 0.6574670504511243 0.8074606425544346 0.2039797899918139 0.4203460673158574 0.1629853937840005 0.4050789358894087 0.0498046875340728 0.0498046875340728 0.025390625 0.025390625 0.025390625 0.025390625 1:255 2:252 3:255 4:175 5:152 6:255 7:255 8:254 9:255 10:255 11:253 12:249 13:61 14:11 15:47 16:236 17:254 18:196 19:252 20:255 21:192 22:93 23:231 24:96 25:124 26:255 27:141 28:252 29:255 30:136 31:206 32:255 33:255 34:107 35:244 36:121 37:252 38:255 39:92 40:212 41:252 42:253 43:117 44:245 45:75 46:252 47:255 48:161 49:183 50:255 51:252 52:134 53:239 54:72 55:255 56:255 57:249 58:125 59:237 60:255 61:133 62:165 63:57 64:253 65:255 66:212 68:11 69:61 70:43 71:6 72:166 73:253 74:255 75:212 76:153 77:130 78:75 79:29 80:185 81:255 
1.234375001362835 0.9674237657535645 1.049173983500358 1.125 1.335376386780941 1.125809276497116 1.259684300553326 0.5898133726149329 1.114129217166071 0.7020612334720311 0.8307204655828016 0.684615322666051 1.037922593970754 0.4050693804653729 0.7264818149463571 0.3376434541476048 0.6623758829375037 0.6584254842222276 0.8074605589502284 0.2039944734027911 0.4202880005499721 0.1629518910856489 0.4050789357531175 0.0498046875340728 0.0498046875340728 0.025390625 0.025390625 0.025390625 0.025390625 1:255 2:252 3:255 4:160 5:72 6:184 7:255 8:245 9:248 10:252 11:255 12:194 13:27 14:51 15:5 16:237 17:166 18:181 19:252 20:252 21:112 22:177 23:255 24:93 25:211 26:208 27:175 28:255 29:216 30:116 31:255 32:254 33:226 34:109 35:255 36:126 37:253 38:248 39:99 40:218 41:253 42:254 43:127 44:252 45:107 46:252 47:255 48:171 49:170 50:255 51:254 52:144 53:255 54:128 55:253 56:255 57:204 58:101 59:235 60:215 61:150 62:169 63:120 64:250 65:255 66:122 68:17 69:31 70:73 71:59 72:219 73:253 74:255 75:207 76:171 77:147 78:50 80:146 81:255 
-0.7656249986371654 0.7365618948072448 0.8125 0.8864647066635427 1.106532918777843 0.8878754181661863 1.022440864747811 0.412904792463536 0.8759765624433744 0.5022543110643585 0.6114563247294147 0.4912123997533061 0.7996609023074639 0.2724591813994093 0.5228518209563529 0.2236334207277272 0.4638235079130691 0.4568951604762212 0.5910938028829074 0.1315127897355473 0.2831571555228902 0.1044938375880723 0.2724616124328517 0.03125 0.03125 0.015625 0 0.015625 0.015625 1:255 2:254 3:255 4:249 5:255 6:255 7:255 8:255 9:255 10:252 11:253 12:203 13:79 14:173 15:215 16:226 17:251 18:255 19:250 20:255 21:88 23:4 24:29 25:32 26:204 27:255 28:251 29:255 30:151 31:35 32:41 35:187 36:255 37:253 38:255 39:215 40:171 41:240 42:21 44:213 45:255 46:253 47:255 48:210 49:178 50:255 51:215 52:195 53:254 54:255 55:252 56:255 57:172 58:160 59:254 60:255 61:255 62:255 63:255 64:252 65:255 66:171 67:160 68:255 69:250 70:252 71:255 72:255 73:252 74:255 75:171 76:160 77:255 78:252 79:255 80:255 81:255 
-0.7656249986371654 0.7365620178481331 0.8125 0.8864647066635427 1.106557706196479 0.8878754181661863 1.022440819147652 0.412904792463536 0.8759765624433744 0.5022553518898345 0.6122205626999293 0.4912123997533061 0.7996743193489375 0.2724591781262005 0.5228518209563529 0.2236334053384939 0.4628920607746166 0.4568951604762212 0.5910938044199364 0.1315127897355473 0.2834576622000591 0.1044938375880723 0.2724616019064445 0.03125 0.03125 0.015625 0 0.015625 0.015625 1:253 2:255 3:223 4:176 5:255 6:255 7:255 8:255 9:255 10:250 11:255 12:99 14:97 15:220 16:205 17:255 18:253 19:251 20:255 21:89 24:15 25:17 26:225 27:254 28:251 29:255 30:72 31:67 32:112 35:188 36:255 37:254 38:255 39:201 40:151 41:255 42:148 43:159 44:246 45:253 46:254 47:255 48:233 49:168 50:253 51:255 52:255 53:255 54:255 55:253 56:255 57:188 58:179 59:255 60:250 61:253 62:255 63:255 64:252 65:255 66:167 67:156 68:255 69:252 70:255 71:255 72:255 73:252 74:255 75:172 76:161 77:255 78:252 79:255 80:255 81:255 
-0.7656249986371654 0.7357009164884532 0.8125 0.8864647066635427 1.106615725607993 0.8878752717653979 1.022440773471632 0.4128719531476991 0.8759765624433744 0.5023038971468007 0.6122205626999293 0.4902370761985049 0.80040406442544 0.2724591781262004 0.5228518209563529 0.2236334053384939 0.4628920607746166 0.4571777117986938 0.5910938044199364 0.1315279528714287 0.2834577352670061 0.1044938371921998 0.2724616019064445 0.03125 0.03125 0.015625 0 0.015625 0.015625 1:253 2:255 3:225 4:177 5:191 6:208 7:243 8:255 9:254 10:250 11:255 12:93 15:20 16:91 17:254 18:254 19:252 20:255 21:113 22:18 23:62 26:238 27:255 28:253 29:255 30:220 31:113 32:255 33:108 34:137 35:255 36:254 37:253 38:255 39:198 40:134 41:251 42:255 43:255 44:255 45:255 46:252 47:255 48:180 49:179 50:255 51:252 52:253 53:255 54:255 55:252 56:255 57:164 58:226 59:255 60:253 61:255 62:255 63:255 64:253 65:255 66:130 67:239 68:255 69:254 70:255 71:255 72:255 73:254 74:255 75:161 76:251 77:255 78:255 79:255 80:255 81:255 
-0.7656249986371654 0.7357009164884532 0.8125 0.8864647066635427 1.106494494482493 0.8878752717653979 1.022440773471632 0.4128737016577569 0.8759765624433744 0.5022398198656339 0.6116984695367315 0.490237076404746 0.7996118484383883 0.272459147629051 0.5228518209563529 0.2236334053384939 0.4628920105325105 0.4569712951577493 0.5910938044199364 0.1316027940904016 0.2833609838977805 0.104493654141691 0.2724615846505764 0.03125 0.03125 0.015625 0 0.015625 0.015625 1:254 2:255 3:243 4:176 5:255 6:255 7:255 8:255 9:255 10:251 11:255 12:122 14:93 15:122 16:179 17:255 18:253 19:251 20:255 21:79 25:11 26:233 27:254 28:250 29:255 30:103 31:34 32:81 34:2 35:229 36:255 37:254 38:255 39:229 40:227 41:245 42:72 43:129 44:247 45:255 46:252 47:255 48:168 49:202 50:255 51:255 52:255 53:255 54:255 55:252 56:255 57:97 58:199 59:254 60:251 61:253 62:255 63:255 64:253 65:255 66:115 67:231 68:255 69:254 70:255 71:255 72:255 73:253 74:255 75:117 76:231 77:255 78:254 79:255 80:255 81:255 
-0.7656295767411622 0.7358392592420568 0.8125 0.8864647066635427 1.106401504603818 0.8878120484697308 1.022442418171805 0.4119833180637839 0.8759765624433744 0.5022292383009099 0.6114496634779308 0.4902368723464363 0.7996118484383883 0.2724591476290509 0.5228518209563529 0.2236334053384939 0.4628920105325105 0.4570179052485577 0.5910938044199364 0.1316027940904016 0.2833609838977805 0.1044932876964395 0.2724615846505764 0.03125 0.03125 0.015625 0 0.015625 0.015625 1:254 2:255 3:244 4:176 5:245 6:255 7:254 8:255 9:255 10:251 11:255 12:126 14:90 15:255 16:255 17:255 18:255 19:251 20:255 21:75 22:4 24:28 25:25 26:156 27:255 28:251 29:255 30:128 31:4 32:51 35:139 36:255 37:255 38:252 39:249 40:85 41:183 42:160 43:58 44:189 45:255 46:255 47:254 48:253 49:116 50:247 51:255 52:255 53:255 54:255 55:253 56:255 57:210 58:127 59:255 60:250 61:253 62:254 63:255 64:252 65:255 66:169 67:161 68:255 69:252 70:255 71:255 72:255 73:252 74:255 75:171 76:160 77:255 78:252 79:255 80:255 81:255 
-0.7656419628003046 0.7361332177050936 0.8125 0.8864647066635427 1.106429914223625 0.8878037847167493 1.022442798246643 0.4119833180637839 0.8759765624433744 0.5022323307622854 0.6114497413025506 0.4912124231367401 0.80040406442544 0.2724591045395876 0.5228518209563529 0.2236334053384939 0.4636613955850363 0.4570240325421274 0.5919791725201339 0.1316027940904016 0.2833609838977805 0.1044932876964395 0.2724615846505764 0.03125 0.03125 0.015625 0 0.015625 0.015625 1:254 2:255 3:244 4:176 5:229 6:255 7:254 8:255 9:255 10:251 11:255 12:125 14:43 15:160 16:245 17:255 18:254 19:252 20:255 21:72 22:5 25:140 26:255 27:250 28:255 29:255 30:33 32:51 34:52 35:255 36:253 37:254 38:255 39:100 40:182 41:235 42:134 43:166 44:255 45:253 46:252 47:255 48:146 49:238 50:255 51:255 52:255 53:255 54:255 55:253 56:255 57:117 58:232 59:254 60:252 61:253 62:255 63:255 64:252 65:255 66:157 67:216 68:255 69:254 70:255 71:255 72:255 73:251 74:255 75:135 76:193 77:255 78:253 79:255 80:255 81:255 
-0.76564203062948 0.7361335662575637 0.8125 0.8866312320570071 1.106119745299687 0.8878487271886326 1.022443537040114 0.4119833180637839 0.8759765624433744 0.5022454641580822 0.61144965877473 0.4902374377181024 0.7996118584969965 0.272459089412691 0.5228518209563529 0.2236334053384939 0.463670598512447 0.4567858218485151 0.5919791725201339 0.1316027940904016 0.2833610951986601 0.1044932876964395 0.2724615846505764 0.03125 0.03125 0.015625 0 0.015625 0.015625 1:255 2:255 3:255 4:187 5:242 6:255 7:255 8:255 9:255 10:253 11:255 12:155 14:68 15:122 16:213 17:255 18:253 19:254 20:247 21:23 25:121 26:255 27:250 28:255 29:242 30:24 31:103 32:76 33:17 34:108 35:255 36:250 37:255 38:248 39:185 40:255 41:248 42:226 43:242 44:255 45:254 46:251 47:255 48:157 49:211 50:255 51:255 52:255 53:255 54:255 55:251 56:255 57:135 58:193 59:254 60:251 61:254 62:255 63:255 64:251 65:255 66:139 67:197 68:255 69:253 70:255 71:255 72:255 73:251 74:255 75:138 76:196 77:255 78:253 79:255 80:255 81:255 
-0.7656814567683434 0.7361789297651644 0.8125 0.8868287052570055 1.106584514447572 0.8878451429424494 1.022443531792034 0.4119833180637839 0.8759765624433744 0.5022234617909069 0.6114633144077192 0.4912123913449383 0.8004040381309066 0.272459089412691 0.5228518209563529 0.2236336694380981 0.463670598512447 0.4568951604762213 0.5919791725201339 0.1317028572201845 0.2833610951986601 0.1044932876964395 0.272461583466894 0.03125 0.03125 0.015625 0 0.015625 0.015625 1:255 2:255 3:251 4:239 5:255 6:255 7:255 8:247 9:255 10:254 11:255 12:231 13:60 14:81 15:133 16:213 17:163 18:255 19:252 20:255 21:186 25:15 26:152 27:255 28:253 29:255 30:208 31:1 32:21 33:27 35:194 36:255 37:255 38:255 39:240 40:97 41:226 42:212 43:120 44:245 45:254 46:252 47:255 48:191 49:143 50:255 51:255 52:255 53:255 54:255 55:253 56:255 57:132 58:219 59:253 60:252 61:253 62:255 63:255 64:255 65:229 66:145 67:255 68:253 69:255 70:255 71:255 72:255 73:255 74:211 75:124 76:254 77:252 78:255 79:255 80:255 81:255 
-0.7655900125817724 0.7362694767059423 0.8125 0.8867725337443455 1.106451734281586 0.8878451429424494 1.022444292682208 0.4128622672645576 0.8759765624433744 0.5022057321179424 0.6112717391523719 0.4912123913428545 0.8004039830087514 0.2724590847770454 0.5228518209563529 0.2236347643613287 0.4638235206972627 0.4568951511998993 0.5919791725201339 0.1317028572201845 0.283361136461292 0.1044932876964395 0.2724615665802376 0.03125 0.03125 0.015625 0 0.015625 0.015625 1:255 2:254 3:255 4:206 5:183 6:255 7:255 8:255 9:255 10:253 11:254 12:150 13:17 15:125 16:193 17:211 18:255 19:250 20:255 21:81 23:10 25:7 26:187 27:255 28:251 29:255 30:171 35:192 36:255 37:252 38:255 39:186 40:29 41:212 42:90 43:74 44:239 45:255 46:251 47:255 48:145 49:129 50:255 51:255 52:255 53:255 54:255 55:251 56:255 57:144 58:214 59:253 60:251 61:253 62:255 63:255 64:253 65:255 66:138 67:241 68:255 69:255 70:255 71:255 72:255 73:255 74:247 75:129 76:254 77:255 78:255 79:255 80:255 81:255 
-0.7655895557620597 0.7362694767059423 0.8125 0.8866776944550632 1.106440516423683 0.8878451429424494 1.022444206773941 0.4128622672645576 0.8759765624433744 0.5022395157460768 0.611954313104261 0.4902371258530296 0.800404038130917 0.2714901814415809 0.5228518209563529 0.2236350360837554 0.4638475457841796 0.4568411415597699 0.5914381615739381 0.1318854673803793 0.2828036665184754 0.1044932876964395 0.2724615496929335 0.03125 0.03125 0.015625 0 0.015625 0.015625 1:255 2:255 3:253 4:221 5:255 6:251 7:251 8:255 9:255 10:251 11:255 12:182 13:32 14:121 15:255 16:255 17:254 18:255 19:250 20:255 21:89 24:59 25:126 26:255 27:252 28:251 29:255 30:160 31:20 32:38 34:35 35:255 36:255 37:255 38:255 39:253 40:106 41:222 43:52 44:255 45:253 46:253 47:255 48:214 49:128 50:255 51:197 52:217 53:255 54:254 55:253 56:255 57:205 58:181 59:253 60:255 61:255 62:255 63:255 64:252 65:255 66:178 67:218 68:255 69:251 70:253 71:255 72:255 73:253 74:255 75:127 76:233 77:255 78:254 79:255 80:255 81:255 
-0.7657360739487964 0.7362901502006067 0.8125 0.886793133360628 1.106494103221533 0.8878451429424494 1.022437142797307 0.41198520368125 0.8759765624433744 0.5022543110643584 0.6112758303236057 0.4902371258433667 0.8000493430069533 0.2714899984082635 0.5228518209563529 0.2246094028291091 0.4638474549548686 0.4567981350295265 0.5912155940943835 0.131885479734291 0.2828038011181182 0.1044931105166922 0.2724615473756173 0.03125 0.03125 0.015625 0 0.015625 0.015625 1:254 2:255 3:235 4:162 5:198 6:255 7:255 8:255 9:255 10:250 11:255 12:149 14:20 15:62 16:160 17:255 18:252 19:250 20:255 21:133 22:2 26:213 27:255 28:250 29:255 30:150 31:9 32:42 33:31 34:38 35:199 36:255 37:253 38:255 39:212 40:104 41:255 42:234 43:255 44:255 45:255 46:252 47:255 48:180 49:171 50:254 51:255 52:254 53:255 54:255 55:252 56:255 57:177 58:184 59:255 60:252 61:255 62:255 63:255 64:253 65:255 66:206 67:159 68:255 69:252 70:255 71:255 72:255 73:253 74:255 75:209 76:127 77:255 78:251 79:255 80:255 81:255 
-0.7657360739487964 0.73615118121667 0.8125 0.8859402790561717 1.106482949729081 0.8878328561163301 1.022437086379304 0.411992356236684 0.8759765624433744 0.5022543110643584 0.6113656454965948 0.4902371257546004 0.7999408201041103 0.2714899984082635 0.5228518209563529 0.2236369505000464 0.4628942431138006 0.4569143074862038 0.5912155940943835 0.1318856012079677 0.2828051623670249 0.1044930646292956 0.272461502808545 0.03125 0.03125 0.015625 0 0.015625 0.015625 1:254 2:255 3:240 4:193 5:227 6:236 7:199 8:255 9:255 10:252 11:255 12:181 14:46 15:56 16:2 17:244 18:255 19:253 20:255 21:219 25:7 26:227 27:255 28:255 29:255 30:255 31:89 32:46 33:1 34:18 35:196 36:255 37:255 38:255 39:255 40:255 41:247 42:161 43:200 44:236 45:255 46:253 47:255 48:221 49:235 50:255 51:255 52:255 53:255 54:255 55:251 56:255 57:139 58:196 59:254 60:248 61:252 62:254 63:255 64:251 65:255 66:135 67:195 68:255 69:253 70:255 71:255 72:255 73:252 74:255 75:174 76:201 77:255 78:253 79:255 80:255 81:255 
